tree
version=v2
num_class=5
num_tree_per_iteration=5
label_index=0
max_feature_idx=48
objective=multiclass num_class:5
feature_names=frameId qb_o los receiver_0 receiver_1 receiver_2 receiver_3 receiver_4 qb_football football_0 football_1 football_2 football_3 football_4 nearest_defender_0 nearest_defender_1 nearest_defender_2 nearest_defender_3 nearest_defender_4 def_football_0 def_football_1 def_football_2 def_football_3 def_football_4 def_qb_0 def_qb_1 def_qb_2 def_qb_3 def_qb_4 receiver_cone_x_0 receiver_cone_x_1 receiver_cone_x_2 receiver_cone_x_3 receiver_cone_x_4 receiver_cone_y_0 receiver_cone_y_1 receiver_cone_y_2 receiver_cone_y_3 receiver_cone_y_4 qb_cone_x qb_cone_y target_share_0 target_share_1 target_share_2 target_share_3 target_share_4 down yardsToGo possessionTeam_codes
feature_infos=[1:148] [0:6.2830107742543877] [10.1:110.09] [0.33286633954186939:73.616895479230863] [0.53535035257296781:69.730226587900887] [0.1676305461424035:75.057950944586807] [0.42190046219458138:71.8169729242329] [-1:68.022985820970845] [0:75.479446871317208] [0.0099999999999980087:67.756075004386133] [0.0099999999999980087:69.441533681219923] [0:68.104452864698928] [0.0099999999999980087:72.232675431552451] [-1:72.961935966639487] [0.041231056256183049:50.479359148071602] [0.031622776601684235:48.148961567203095] [0.041231056256182189:47.092937899434567] [0.040000000000006253:52.441244264414614] [-1:52.554773332210281] [0.05099019513592537:65.977602260160978] [0.042426406871193832:68.160178990375314] [0.036055512754642575:65.632660314815823] [0.058309518948454202:66.495417135318434] [-1:66.495417135318434] [0.12369316876853105:73.420269680790469] [0.12369316876853105:68.987692380597863] [0.14866068747318559:74.146294580376704] [0.15652475842498909:72.821651999937501] [-1:68.097626977744241] [2.2799999999999998:123.06] [3.4300000000000064:122.67] [1.6100000000000001:123.52] [4.1299999999999963:122.48] [-3.1299999999999999:123.13] [-4.1699999999999999:57.963333333333338] [-5.3700000000000001:58.189999999999998] [-4.1366666666666632:57.423333333333332] [-5.5666666666666629:56.763333333333343] [-3.4866666666666646:55.719999999999999] [-0.76000000000000001:108.45] [-9.0299999999999994:58.609999999999999] [0:0.41666666666666669] [0:0.41666666666666669] [0:0.41666666666666669] [0:0.41666666666666669] [-1:0.35227272727272729] [1:4] [1:41] 13:26:25:29:22:11:1:6:19:20:10:14:7:4:24:16:15:8:0:2:5:28:9:12:23:31:21:3:17:18:30:27
tree_sizes=2494 2517 2506 2484 2478 2543 2566 2527 2562 2547 2559 2582 2557 2540 2539 2574 2573 2568 2581 2567 2575 2558 2537 2561 2571 2570 2574 2574 2554 2547 2598 2573 2575 2593 2574 2592 2549 2568 2560 2575 2575 2596 2598 2589 2587 2582 2599 2567 2561 2564 2584 2583 2559 2563 2587 2600 2577 2586 2601 2589 2595 2603 2575 2589 2581 2572 2587 2568 2557 2584 2545 2597 2588 2569 2567 2604 2598 2593 2595 2567 2592 2565 2577 2571 2562 2539 2601 2570 2577 2577 2588 2571 2593 2570 2561 2595 2586 2585 2568 2572 2562 2592 2593 2563 2583 2582 2597 2603 2558 2578 2605 2571 2590 2581 2567 2579 2558 2620 2611 2572 2568 2595 2585 2589 2566 2557 2542 2569 2590 2599 2573 2579 2587 2581 2575 2597 2533 2572 2574 2559 2603 2610 2557 2586 2602 2609 2590 2560 2581 2561 2556 2592 2584 2596 2535 2598 2585 2591 2604 2575 2545 2591 2574 2568 2585 2567 2587 2567 2592 2540 2610 2568 2566 2575 2565 2575 2578 2569 2586 2601 2571 2566 2583 2599 2581 2584 2588 2592 2576 2552 2584 2564 2591 2590 2562 2570 2574 2545 2561 2545 2586 2573 2571 2574 2533 2579 2583 2546 2592 2601 2599 2536 2584 2570 2579 2600 2567 2587 2555 2577 2543 2570 2598 2553 2567 2563 2579 2559 2562 2547 2588 2560 2598 2593 2531 2546 2534 2558 2562 2565 2558 2578 2583 2593 2572 2586 2562 2575 2536 2584 2527 2576 2528 2549 2573 2583 2570 2553 2549 2569 2563 2548 2575 2534 2576 2563 2561 2576 2589 2495 2528 2568 2560 2506 2587 2553 2561 2521 2559 2580 2533 2553 2559 2609 2557 2550 2579 2581 2509 2556 2610 2518 2533 2551 2583 2556 2528 2577 2550 2562 2558 2533 2560 2547 2586 2575 2547 2576 2534 2549 2529 2550 2570 2529 2598 2525 2542 2586 2587 2577 2575 2544 2502 2534 2573 2511 2561 2542 2523 2531 2508 2529 2530 2534 2540 2586 2511 2557 2514 2595 2550 2551 2541 2524 2540 2542 2566 2532 2543 2539 2515 2574 2573 2546 2514 2558 2510 2559 2535 2536 2559 2504 2567 2534 2558 2528 2552 2580 2531 2538 2544 2548 2587 2576 2511 2551 2554 2551 2538 2542 2549 2556 2525 2543 2528 2539 2506 2552 2522 2564 2552 2547 2549 2512 2549 2529 2547 2507 2512 2547 2532 2543 2578 2556 2575 2536 2518 2553 2540 2552 2490 2544 2500 2522 2545 2536 2517 2573 2547 2588 2489 2541 2541 2585 2541 2526 2548 2516 2566 2538 2522 2540 2557 2521 2507 2504 2551 2505 2535 2542 2532 2511 2581 2573 2545 2542 2590 2523 2528 2523 2508 2561 2484 2495 2518 2504 2509 2540 2544 2525 2522 2539 2559 2499 2538 2510 2531 2582 2546 2541 2540 2514 2583 2508 2522 2552 2566 2578 2566 2560 2483 2536 2542 2550 2557 2519 2527 2570 2513 2593 2514 2534 2566 2483 2528 2568 2554 2506 2551 2538 2561 2498 2557 2516 2539 2526 2563 2526 2490 2507 2526 2542 2535 2540 2559 2484 2573 2551 2532 2474 2534 2544 2529 2492 2570 2572 2535 2570 2500 2512 2497 2582 2569 2524 2541 2494 2523 2548 2533 2511 2490 2522 2532 2495 2536 2514 2555 2519 2549 2535 2569 2573 2492 2555 2524 2528 2509 2543 2561 2474 2496 2538 2504 2522 2494 2576 2518 2564 2488 2505 2512 2487 2497 2526 2512 2509 2563 2530 2559 2557 2497 2548 2576 2498 2530 2519 2527 2563 2554 2550 2489 2514 2539 2577 2504 2523 2551 2510 2480 2510 2524 2509 2531 2504 2492 2544 2565 2532 2543 2485 2546 2543 2515 2526 2499 2484 2531 2530 2530 2539 2582 2560 2563 2526 2543 2576 2573 2543 2558 2517 2507 2557 2520 2547 2576 2468 2536 2492 2551 2495 2543 2541 2527 2497 2538 2535 2487 2515 2516 2513 2548 2511 2546 2510 2566 2473 2543 2513 2527 2506 2536 2541 2557 2483 2567 2541 2505 2491 2526 2486 2512 2534 2489 2497 2499 2490 2492 2545 2521 2553 2607 2531 2518 2516 2547 2509 2554 2521 2576 2506 2541 2580 2489 2507 2504 2517 2522 2479 2475 2513 2549 2543 2512 2476 2542 2548 2514 2550 2519 2545 2516 2525 2549 2494 2497 2500 2500 2535 2519 2545 2516 2573 2483 2547 2549 2578 2512 2560 2468 2504 2537 2528 2553 2546 2563 2558 2582 2530 2572 2505 2523 2547 2487 2559 2522 2501 2530 2507 2502 2496 2538 2498 2506 2516 2513 2501 2517 2557 2504 2496 2545 2520 2518 2504 2514 2476 2548 2549 2494 2499 2482 2533 2510 2549 2553 2567 2546 2471 2496 2536 2526 2561 2512 2518 2510 2540 2518 2555 2531 2512 2544 2513 2505 2486 2509 2538 2527 2477 2509 2526 2515 2500 2551 2505 2489 2607 2487 2550 2558 2575 2508 2533 2511 2488 2540 2554 2491 2499 2494 2521 2571 2516 2519 2573 2537 2533 2515 2562 2512 2515 2502 2502 2522 2547 2533 2502 2544 2523 2544 2514 2515 2511 2475 2490 2537 2551 2544 2499 2504 2503 2535 2524 2591 2547 2524 2497 2554 2521 2507 2491 2500 2514 2530 2563 2500 2518 2508 2507 2501 2527 2516 2552 2484 2517 2539 2512 2496 2512 2591 2537 2519 2592 2529 2497 2538 2514 2529 2531 2498 2571 2549 2534 2540 2482 2513 2548 2567 2531 2547 2567 2505 2516 2556 2533 2535 2519 2521 2521 2505 2485 2507 2499 2501 2522 2498 2567 2505 2567 2535 2536 2492 2558 2519 2487 2534 2490 2491 2526 2497 2512 2572 2537 2560 2521 2500 2528 2519 2486 2493 2512 2540 2528 2504 2477 2506 2564 2499 2514 2526 2562 2537 2523 2510 2504 2533 2540 2541 2495 2539 2499 2566 2527 2487 2520 2516 2523 2512 2571 2487 2546 2520 2509 2501 2485 2508 2536 2511 2541 2505 2513 2507 2552 2574 2538 2514 2499 2557 2527 2529 2546 2508 2515 2486 2509 2528 2545 2530 2529 2505 2521 2524 2548 2532 2536 2505 2505 2524 2524 2531 2563 2513 2510 2496 2506 2536 2522 2487 2516 2523 2524 2549 2537 2502 2486 2528 2530 2524 2499 2534 2511 2527 2499 2529 2524 2519 2547 2547 2561 2515 2491 2533 2500 2580 2498 2499 2496 2532 2569 2481 2491 2528 2527 2502 2518 2525 2539 2529 2491 2536 2537 2540 2548 2496 2493 2508 2554 2534 2580 2543 2502 2504 2538 2511 2547 2503 2532 2523 2571 2468 2523 2525 2570 2492 2503 2563 2546 2513 2506 2525 2551 2556 2495 2581 2531 2560 2508 2543 2505 2541 2531 2555 2562 2516 2519 2520 2517 2509 2537 2523 2552 2500 2551 2502 2570 2498 2509 2524 2520 2519 2521 2524 2523 2535 2541 2527 2521 2529 2522 2491 2522 2494 2465 2554 2496 2504 2533 2559 2548 2515 2504 2509 2520 2505 2528 2552 2510 2546 2583 2533 2527 2544 2545 2546 2494 2530 2542 2550 2529 2531 2526 2480 2547 2600 2524 2508 2486 2555 2480 2550 2510 2522 2564 2529 2499 2502 2525 2524 2580 2524 2500 2561 2522 2527 2526 2532 2512 2534 2513 2485 2563 2516 2519 2536 2529 2506 2481 2542 2608 2503 2513 2515 2519 2534 2561 2525 2559 2529 2552 2560 2556 2572 2501 2507 2495 2549 2501 2537 2535 2549 2522 2499 2562 2512 2526 2560 2518 2526 2538 2498 2501 2513 2534 2515 2540 2572 2513 2543 2560 2504 2569 2586 2501 2507 2555 2521 2542 2584 2545 2546 2495 2529 2556 2542 2543 2492 2562 2519 2512 2533 2568 2515 2559 2551 2525 2500 2568 2576 2550 2514 2522 2517 2514 2542 2538 2510 2526 2497 2532 2488 2533 2543 2561 2493 2541 2510 2527 2479 2491 2523 2514 2500 2543 2503 2505 2534 2551 2538 2527 2538 2493 2519 2489 2533 2481 2522 2508 2514 2545 2536 2567 2554 2541 2569 2534 2505 2516 2578 2554 2519 2526 2513 2530 2518 2562 2523 2525 2529 2563 2556 2496 2563 2550 2557 2555 2504 2493 2531 2571 2538 2528 2558 2523 2490 2503 2525 2507 2507 2505 2513 2486 2509 2575 2538 2525 2532 2494 2514 2533 2555 2543 2539 2546 2546 2490 2492 2565 2572 2555 2534 2552 2532 2511 2514 2534 2506 2497 2500 2566 2556 2552 2499 2515 2544 2522 2512 2553 2487 2514 2495 2553 2505 2528 2528 2507 2517 2529 2479 2549 2525 2507 2487 2521 2501 2517 2505 2508 2567 2536 2487 2521 2503 2503 2545 2507 2499 2504 2538 2568 2494 2519 2585 2508 2502 2533 2546 2524 2516 2510 2497 2514 2550 2514 2500 2536 2542 2512 2525 2524 2544 2518 2500 2543 2526 2539 2559 2528 2545 2556 2567 2554 2484 2516 2499 2464 2521 2504 2545 2515 2557 2507 2529 2530 2509 2502 2499 2519 2519 2506 2509 2569 2494 2507 2515 2516 2531 2513 2512 2527 2544 2477 2496 2552 2583 2504 2555 2529 2554 2502 2548 2537 2534 2526 2511 2502 2507 2532 2536 2520 2521 2545 2520 2578 2535 2519 2505 2543 2557 2541 2555 2549 2569 2544 2546 2518 2563 2542 2547 2485 2541 2541 2514 2543 2514 2496 2522 2549 2508 2555 2527 2532 2533 2535 2519 2512 2514 2485 2539 2528 2524 2523 2561 2533 2518 2517 2540 2534 2543 2526 2543 2529 2510 2579 2543 2555 2528 2505 2558 2535 2507 2510 2543 2485 2510 2573 2482 2498 2515 2549 2529 2567 2500 2510 2526 2506 2563 2582 2545 2554 2506 2526 2518 2558 2555 2523 2518 2514 2503 2502 2521 2514 2541 2521 2493 2507 2538 2544 2517 2524 2510 2501 2556 2540 2523 2493 2504 2551 2518 2493 2505 2522 2504 2539 2563 2527 2569 2537 2546 2491 2539 2523 2506 2537 2569 2520 2504

Tree=0
num_leaves=31
num_cat=0
split_feature=9 8 3 9 8 41 9 8 12 9 9 9 11 10 43 21 42 41 45 23 12 9 9 14 8 8 15 14 16 41
split_gain=8656.31 1310.77 655.499 652.23 147.708 135.118 60.8678 84.9688 59.7063 55.0775 53.9705 44.5396 44.5223 40.3069 36.221 35.8125 34.3416 39.7379 28.9339 27.6527 27.537 27.5103 25.1515 24.1921 24.0218 23.31 20.9527 21.1154 22.7913 20.5954
threshold=2.919443296323498 6.4674680942591953 5.2973106357032558 5.4223611093323552 20.224428297107412 0.12794158361018829 8.1201262304986521 26.057366516379897 0.92417530804496095 5.9740898885152243 17.81407589262243 3.578596090435116 1.7966913862067686 0.88470315959235324 0.0059525918577047103 10.207470298765449 0.14157288317256164 1.0000000180025095e-35 1.0000000180025095e-35 6.4024799875103584 4.8847108408096824 7.132208632092282 20.587127045059539 7.1683680128123664 0.9449338601193199 1.056338007456525 7.2528477077277884 1.294681427996865 2.052413211442627 1.0000000180025095e-35
decision_type=2 2 2 2 2 2 2 2 2 2 2 2 2 2 2 2 2 2 2 2 2 2 2 2 2 2 2 2 2 2
left_child=2 5 -1 4 11 9 7 -5 -4 29 14 20 -10 -14 -7 -9 22 -18 -12 -6 -3 -16 -11 26 -20 -25 27 -23 -29 -2
right_child=1 3 8 6 19 10 -8 15 12 16 18 -13 13 -15 21 -17 17 -19 24 -21 -22 23 -24 25 -26 -27 -28 28 -30 -31
leaf_value=-1.5864584133157371 -1.5977204264265166 -1.5999727639192718 -1.621460581378892 -1.5978239821733098 -1.524133408179436 -1.5179058303138764 -1.6189344150252163 -1.6064191091571578 -1.569142417129382 -1.5518021285226784 -1.5330651996018765 -1.5569348454711631 -1.5244188251096398 -1.3260216869564787 -1.5633916269571839 -1.4185756072252691 -1.5988469784942803 -1.5651377613173978 -1.5569493782945658 -1.3595396770761403 -1.4096766524968758 -1.5758094205502826 -1.5752774203097326 -1.4689470490840997 -1.581489261678543 -1.5306707725033741 -1.5623601647910048 -1.5131893918101453 -1.5428494855645249 -1.5753230085536765
leaf_count=318 1660 28 21 840 34 1560 19530 40 23 8227 844 345 31 4911 2238 129 1317 5229 2700 317 125 514 1648 215 2160 1279 1807 878 6938 4825
internal_value=0 -0.172761 2.13107 -0.525033 0.964709 -0.00167581 -0.586613 -0.17121 2.28506 -0.0939552 0.0983455 0.357347 2.2974 2.30861 0.15164 0.950913 -0.0405076 -0.137928 -0.0458118 1.82644 1.13625 0.123455 0.0240712 0.15734 -0.0972905 0.363388 0.126972 0.163699 0.186093 -0.229292
internal_count=70731 65427 5304 21388 849 44039 20539 1009 4986 22906 21133 498 4965 4942 15429 169 16421 6546 5704 351 153 13869 9875 11631 4860 1494 10137 8330 7816 6485
shrinkage=1


Tree=1
num_leaves=31
num_cat=1
split_feature=10 8 10 4 42 0 9 11 11 12 9 13 10 8 10 43 42 12 15 45 12 13 45 10 48 10 10 41 8 20
split_gain=8554.06 1212.93 796.52 528.87 228.111 176.3 102.205 89.1451 86.5229 85.5208 92.3838 86.976 57.6756 69.3053 53.842 48.2651 95.0786 42.7988 31.1059 28.5652 23.0426 23.0153 22.8738 21.1421 20.352 20.0338 23.6497 18.6183 17.6848 16.0824
threshold=2.6484901358403472 6.4674680942591953 5.077233498582391 5.4208071351419154 0.14776300743281875 37.500000000000007 2.1673370595305594 5.5002772655112793 2.411503320866125 5.1830589417875723 5.3038665133196004 5.7532686323945983 7.0162596855746795 26.057366516379897 15.982005495826551 1.0000000180025095e-35 1.0000000180025095e-35 1.2850095035833686 2.3808611864143114 0.036341624477217706 18.15170239879652 19.785949559484667 0.070407954976234241 1.406804673226101 0 20.557924262143874 6.4692658006917609 0.11726508785332315 10.179877207764571 17.160391894997485
decision_type=2 2 2 2 2 2 2 2 2 2 2 2 2 2 2 2 2 2 2 2 2 2 2 2 1 2 2 2 2 2
left_child=3 4 5 23 15 28 -5 -7 -8 -9 -11 -12 13 -4 19 24 -17 -10 -18 -6 -21 25 27 -1 -2 26 -20 -16 -3 -22
right_child=1 2 12 6 14 7 8 9 17 10 11 -13 -14 -15 22 16 18 -19 21 20 29 -23 -24 -25 -26 -27 -28 -29 -30 -31
leaf_value=-1.5080233491994375 -1.5313323380180197 -1.4910820498477531 -1.6074370710540442 -1.5872626117319857 -1.5395771283183344 -1.6135335774171702 -1.6070813014052749 -1.6334280951205138 -1.5668477758733239 -1.6205883709289941 -1.5892180557797502 -1.3426365613566418 -1.636543840820798 -1.4462262097869683 -1.550559100003591 -1.6189447096865655 -1.598926130189444 -1.3377087157903174 -1.5925642701930371 -1.5640620828736127 -1.5446552579053534 -1.5677193452203275 -1.5873634585319332 -1.6209019173072974 -1.5745246828279551 -1.6084118379892201 -1.5767907515697366 -1.5792853060143486 -1.6135941391148971 -1.4771943120264597
leaf_count=67 297 43 533 52 3303 69 37 46 25 47 48 480 20043 96 1469 3005 4242 4635 4862 5760 1247 2800 2385 207 5076 1041 7184 1295 219 118
internal_value=0 -0.167934 -0.506752 2.19682 -0.00173795 1.05527 2.33295 1.51842 2.35991 1.72768 1.91101 2.11988 -0.578687 -0.0579171 0.168224 -0.0946098 -0.129244 2.38103 -0.0859818 0.240379 0.178139 -0.0505037 0.0220929 -0.162594 0.0545126 -0.0812528 -0.0611641 0.130228 -0.164464 0.382174
internal_count=70731 65708 21624 5023 44084 952 4749 690 4697 621 575 528 20672 629 15577 28507 23134 4660 20129 10428 7125 15887 5149 274 5373 13087 12046 2764 262 1365
cat_boundaries=0 1
cat_threshold=129
shrinkage=1


Tree=2
num_leaves=31
num_cat=1
split_feature=11 8 11 5 43 9 10 12 13 43 12 11 8 11 41 5 0 26 16 0 10 16 47 45 29 11 12 22 13 48
split_gain=8434.29 1146.83 947.523 682.093 186.927 139.903 150.004 128.056 97.4365 90.8918 84.1931 69.4478 98.1327 56.5036 55.142 43.4897 45.9286 37.6933 35.3467 71.3989 32.3244 28.8403 22.7646 20.587 19.7503 19.7076 17.3202 17.2846 18.8624 17.2527
threshold=2.411503320866125 6.013410013718218 5.2482473215084138 3.8429285495983749 1.0000000180025095e-35 6.0658181640375357 5.3499485971471774 6.3065838613110188 2.8244898144879014 0.16800789392929327 3.1024978393165519 8.1987772857493741 28.125930142577879 18.627855471706326 0.0038508865563660088 6.4839532676746297 19.500000000000004 20.915329306461185 2.7081543530604 21.500000000000004 1.9426656871453931 11.202559972143673 9.5000000000000018 0.20600059559261469 81.980000000000004 5.5519816280290764 6.9000471012647315 14.614610839788106 6.4001132797217846 0
decision_type=2 2 2 2 2 2 2 2 2 2 2 2 2 2 2 2 2 2 2 2 2 2 2 2 2 2 2 2 2 1
left_child=3 4 5 -1 14 -3 -7 -8 -9 13 -5 12 -4 15 29 16 21 22 -17 -20 -12 24 -11 -24 -6 -21 -23 -14 -29 -2
right_child=1 2 11 10 9 6 7 8 -10 17 20 -13 27 -15 -16 18 -18 -19 19 25 -22 26 23 -25 -26 -27 -28 28 -30 -31
leaf_value=-1.6581728828530127 -1.5939647371643011 -1.6583911330518548 -1.6632115708032522 -1.6034466454933549 -1.6384362414890616 -1.6678472818540231 -1.6436122954593315 -1.6386940526063549 -1.3875312905790325 -1.5914962479298329 -1.5858229419368548 -1.6888499340617771 -1.6259320603757859 -1.6449709461553326 -1.6722266093146778 -1.633902738400687 -1.6750468517767447 -1.6310707761842409 -1.6227507975415354 -1.4600754354796657 -1.3785536530991724 -1.6273167249939309 -1.6131386420891254 -1.5177423336774987 -1.6131198060920353 -1.5909496003363401 -1.5494117053437086 -1.6281198304724549 -1.4370866306028769 -1.6432746337413342
leaf_count=304 185 153 951 54 5332 107 86 54 529 3094 24 20212 29 5753 3412 3807 845 1935 7551 37 4365 158 4235 73 1197 2702 212 20 91 3224
internal_value=0 -0.164966 -0.494367 2.29305 0.00241473 1.2664 1.57331 1.88648 2.18577 0.052447 2.46965 -0.571152 -0.133443 0.00104879 -0.268475 0.0424132 -0.0648184 0.204346 0.101319 0.155567 2.49685 -0.0168142 0.262206 0.178499 -0.044228 0.401904 0.466928 1.25877 1.57865 -0.108264
internal_count=70731 65984 22232 4747 43752 929 776 669 583 36931 4443 21303 1091 27594 6821 21841 7744 9337 14097 10290 4389 6899 7402 4308 6529 2739 370 140 111 3409
cat_boundaries=0 1
cat_threshold=12
shrinkage=1


Tree=3
num_leaves=31
num_cat=0
split_feature=12 8 12 6 9 44 12 10 11 13 42 11 12 8 6 0 10 0 17 18 13 45 12 17 35 12 9 11 13 9
split_gain=8539.9 1126.84 936.83 642.458 152.397 117.422 110.173 107.28 119.561 137.725 81.7231 64.4934 55.7174 71.8469 46.8325 59.528 43.1156 42.2519 87.2959 35.2851 31.1891 29.7775 28.0537 24.8635 23.401 22.0876 19.629 23.3487 27.171 19.0326
threshold=2.3954644332343897 6.4674680942591953 5.3733602103457008 4.3998295388506818 5.7464554222610813 0.0023204913095852698 18.693917457915727 5.7506651664787301 3.4518830914699259 4.0220330674082136 1.0000000180025095e-35 1.5356757456441337 7.7742973889872173 26.573507483948937 6.5949601930768438 18.500000000000004 1.6574974821683626 22.500000000000004 3.8327535793473673 7.4924295120866571 6.3071625926071491 0.018863560547092185 13.518711088841586 1.3649358948246479 23.94166666666667 18.55466383322285 8.2025544801581702 9.7509768676270152 18.390940704010937 2.1673370595305594
decision_type=2 2 2 2 2 2 2 2 2 2 2 2 2 2 2 2 2 2 2 2 2 2 2 2 2 2 2 2 2 2
left_child=3 5 4 20 -3 10 14 -6 -9 -10 25 -5 13 -4 15 19 -13 21 23 -7 -1 24 -20 -19 -16 -2 -15 -28 -29 -18
right_child=1 2 12 11 7 6 -8 8 9 -11 -12 16 -14 26 17 -17 29 18 22 -21 -22 -23 -24 -25 -26 -27 27 28 -30 -31
leaf_value=-1.5321645828495754 -1.6291485713796139 -1.6661082341034661 -1.6710086814032623 -1.6708639579129132 -1.6597385475283739 -1.6364060823837949 -1.6486251053287961 -1.6770388268344756 -1.6714609423106033 -1.3945450417619476 -1.6749024521941649 -1.6271197098734749 -1.6933748275223164 -1.6963352922143582 -1.6278493328212278 -1.6761051268967393 -1.5440610110644146 -1.6481704999996643 -1.5676631224862705 -1.6079437843709061 -1.6710086814032623 -1.6301922648252569 -1.6059551841975275 -1.6152590142875933 -1.5971669909442612 -1.6651574720382571 -1.6698026523170195 -1.5852684275278244 -1.4024352810438379 -1.3813143884113879
leaf_count=64 2777 158 704 25 87 6726 8195 66 64 537 3491 23 20219 21 1404 1023 23 1137 1549 1747 264 10412 1004 2046 1814 674 24 43 65 4345
internal_value=0 -0.166244 -0.49609 2.31238 1.27449 -0.00140692 0.0384901 1.60839 1.85147 2.10182 -0.214381 2.49134 -0.572706 -0.127079 0.0903336 -0.0123121 2.50761 0.140665 0.269143 0.0367776 -0.0970179 0.0865973 0.514934 0.0720003 0.236618 -0.0196596 0.981164 1.23609 1.58985 2.52044
internal_count=70731 65987 21988 4744 912 43999 37057 754 667 601 6942 4416 21076 857 28862 9496 4391 19366 5736 8473 328 13630 2553 3183 3218 3451 153 132 108 4368
shrinkage=1


Tree=4
num_leaves=31
num_cat=0
split_feature=13 7 8 13 45 0 9 12 11 10 13 45 41 18 18 8 10 0 7 44 13 44 47 18 44 12 23 13 36 4
split_gain=6813.84 2872.37 1224.01 529.718 203.898 136.888 101.282 116.372 117.204 127.615 78.3493 74.0166 49.4653 39.7424 37.9815 44.2766 34.1466 29.8503 61.83 25.0173 24.7863 21.9292 21.3485 27.2319 21.5509 20.8602 21.9497 20.6386 20.1223 19.794
threshold=2.8244898144879014 4.9301470554802291 6.4674680942591953 6.4948402580405507 1.0000000180025095e-35 39.500000000000007 7.5568743525192792 4.8847108408096824 5.8142110382891117 4.0524683793643872 17.2219714317363 0.10354486622235103 0.0038508865563660088 1.4115417102184094 3.4184645674841008 1.0016985574512918 1.6574974821683626 27.500000000000004 5.754459140107623 0.0050785531603945938 5.4777778336943728 1.0000000180025095e-35 11.500000000000002 8.1546735054269615 0.26781931870937797 2.0740056598106515 17.105440654374103 1.5533672192782466 46.671666666666674 5.4208071351419154
decision_type=2 2 2 2 2 2 2 2 2 2 2 2 2 2 2 2 2 2 2 2 2 2 2 2 2 2 2 2 2 2
left_child=1 14 4 5 12 -4 -7 -8 -9 -10 11 13 -2 -6 -1 -16 -3 -15 -19 -13 -20 29 24 -24 28 -18 -27 -17 -21 -12
right_child=2 16 3 -5 10 6 7 8 9 -11 21 19 -14 17 15 27 25 18 20 22 -22 -23 23 -25 -26 26 -28 -29 -30 -31
leaf_value=-1.7129453316761263 -1.6601710564473631 -1.6328840303167345 -1.6828177339520345 -1.7100977488992708 -1.6895591758870987 -1.6885346517206556 -1.6998164415725623 -1.6887270479917149 -1.6842144809068682 -1.4158329881592571 -1.5411722859159671 -1.5997683444359376 -1.6878613831939449 -1.648872280190484 -1.7045837073315244 -1.4799041159963853 -1.5522218936750958 -1.6997324677169916 -1.4774618645926014 -1.6358665706892452 -1.6185109329404737 -1.661245267084233 -1.624142865989314 -1.5584924484670253 -1.5564303529781378 -1.3955904276253888 -1.5383940988222433 -1.627842646776632 -1.5522218936750958 -1.6392233310284079
leaf_count=1074 3633 20 315 20397 686 129 94 78 66 427 73 967 4874 12532 144 58 28 327 41 7248 2054 8939 729 283 115 4469 35 64 94 738
internal_value=0 1.84945 -0.168062 -0.518384 0.00580176 0.690612 1.0881 1.37066 1.67554 1.99924 0.0666991 0.119825 -0.2435 0.0440236 -0.462094 0.145565 2.52991 0.0634171 0.245968 0.245464 0.359354 -0.0699344 0.214211 0.459018 0.180988 2.54025 2.54986 0.941747 0.168903 0.212884
internal_count=70731 5892 64839 21506 43333 1109 794 665 571 493 34826 25076 8507 15640 1340 266 4552 14954 2422 9436 2095 9750 8469 1012 7457 4532 4504 122 7342 811
shrinkage=1


Tree=5
num_leaves=31
num_cat=0
split_feature=9 8 9 3 41 0 9 8 10 12 11 9 13 9 12 42 41 43 11 11 10 45 9 8 9 14 8 14 35 15
split_gain=6620.23 1206.73 579.357 439.101 120.916 104.506 59.3792 72.7062 58.4876 53.9194 58.2162 50.8082 48.5341 48.1447 40.4409 31.3289 40.6294 31.01 28.3843 27.812 25.2631 25.1154 23.7491 21.6815 20.9794 20.3256 24.8749 28.9051 24.0805 21.4558
threshold=2.919443296323498 6.4674680942591953 5.4223611093323552 5.2973106357032558 0.12794158361018829 39.500000000000007 8.1201262304986521 26.057366516379897 3.6031721629177049 3.7451101451891824 3.7252785126910539 5.5442357453466657 6.0502975133459369 17.81407589262243 0.92417530804496095 0.14157288317256164 1.0000000180025095e-35 0.016239284039916955 1.5356757456441337 10.172312912993243 0.88470315959235324 1.0000000180025095e-35 6.780988128183318 0.9449338601193199 20.587127045059539 1.197956575360321 0.80224684480526365 5.2416552727318324 44.671666666666674 7.2528477077277884
decision_type=2 2 2 2 2 2 2 2 2 2 2 2 2 2 2 2 2 2 2 2 2 2 2 2 2 2 2 2 2 2
left_child=3 4 5 -1 11 -3 7 -4 -7 -10 -11 -2 -12 17 -5 24 -17 -6 -16 -9 -20 -15 -19 -23 -13 -24 27 -27 29 -28
right_child=1 2 6 14 13 8 -8 19 9 10 12 15 -14 21 18 16 -18 22 20 -21 -22 23 25 -25 -26 26 28 -29 -30 -31
leaf_value=-0.027441083248965006 -0.023884661760344077 -0.0082653448885625699 -0.038154174363161764 -0.062359037000454434 0.033163740937202861 -0.052595769954155526 -0.059604153128771424 -0.053935340936302749 -0.03885318895373352 -0.049351346872521192 0.024304358357423856 0.0048447411631622325 0.18887546228455632 0.022901159947063033 -0.019038245472180176 -0.039998621658048739 -0.0068578943148778762 -0.0078345027255211537 0.030763581858668454 0.11748335716053125 0.1858659374933461 0.0010425388148540425 -0.022061266241784266 -0.02236700304344157 -0.016540016384073767 0.021518343861390992 0.015126870738171842 0.077896464176263974 0.063105365514067063 -0.0050762979220547325
leaf_count=318 5336 258 840 21 2185 52 19530 37 47 38 60 8865 394 844 21 1428 5629 1744 31 132 4913 2700 458 2160 1648 955 7446 370 271 2000
internal_value=0 -0.163305 -0.511174 1.72615 -0.001519 0.844466 -0.573963 -0.160528 1.21859 1.37476 1.52996 -0.0893515 1.68883 0.0925472 1.83428 -0.044445 -0.134579 0.14245 1.84282 0.837004 1.85009 -0.0439759 0.110777 -0.0926122 0.0152769 0.139105 0.15376 0.374554 0.123349 0.108782
internal_count=70731 65427 21388 5304 44039 849 20539 1009 591 539 492 22906 454 21133 4986 17570 7057 15429 4965 169 4944 5704 13244 4860 10513 11500 11042 1325 9717 9446
shrinkage=0.1


Tree=6
num_leaves=31
num_cat=2
split_feature=10 8 10 4 42 0 11 9 12 13 9 11 10 43 42 10 8 15 12 41 14 45 17 16 23 10 10 48 9 48
split_gain=6506.6 1116.12 705.75 346.764 202.573 135.642 80.8252 75.4185 71.5532 70.249 65.06 57.0581 47.1568 42.0761 89.2752 38.1189 73.5493 28.8938 26.5779 24.5596 21.7891 21.7668 20.2737 18.3931 19.9074 18.3099 21.0761 20.5466 18.6718 18.2415
threshold=2.6484901358403472 6.4674680942591953 5.5031899837301852 4.8665131252121787 0.14776300743281875 37.500000000000007 5.5002772655112793 5.3038665133196004 5.0293339442228229 5.7532686323945983 2.1673370595305594 2.411503320866125 15.982005495826551 1.0000000180025095e-35 1.0000000180025095e-35 9.585045642486195 30.165818197294946 2.3808611864143114 1.2850095035833686 0.093917928676111387 1.6290794842756002 0.11027955095751706 1.6234993034741099 7.7844877799025181 5.3584372716034734 19.762098825779372 6.4692658006917609 0 21.701277611568376 1
decision_type=2 2 2 2 2 2 2 2 2 2 2 2 2 2 2 2 2 2 2 2 2 2 2 2 2 2 2 1 2 1
left_child=3 4 5 -1 13 -3 -7 -8 -9 -10 -5 -12 19 29 -15 16 -4 -16 -13 21 -19 23 -14 24 -6 26 -22 -28 -29 -2
right_child=1 2 15 10 12 6 7 8 9 -11 11 18 22 14 17 -17 -18 20 -20 -21 25 -23 -24 -25 -26 -27 27 28 -30 -31
leaf_value=-0.020463255477294141 0.042488798082457709 -0.01938700208305727 -0.04289249993670264 -0.0093786702869126434 0.016337409459733852 -0.035918435613167231 -0.047455019374522817 -0.049730526450308912 -0.011663863107630949 0.18733409307847784 -0.029411558720023968 0.0099843413027113775 0.024355541757511655 -0.040753284830221892 -0.020994691821961904 -0.059440267915091521 0.089792148385240078 0.017706215033369624 0.19029888949100693 0.014279600757005151 -0.012961653037571403 0.013284639801694141 -0.003336603036788008 0.015692419258552515 0.052770693790449311 -0.024193275779527425 0.03181876165209286 -0.0036627171679813743 0.031545212754085429 0.002084450217374995
leaf_count=262 297 295 1584 52 565 94 64 51 60 510 37 25 995 3005 4242 18830 136 1226 4647 5411 5271 1465 4154 820 2167 1617 562 6719 492 5076
internal_value=0 -0.158763 -0.493043 1.7698 -0.00156988 0.840276 1.18998 1.37612 1.53898 1.69176 1.86192 1.88019 0.157261 -0.0898518 -0.122548 -0.570957 -0.317648 -0.0808529 1.89473 0.223991 -0.0467041 0.311159 0.0203396 0.384104 0.452275 -0.0654908 -0.0437887 0.0138827 -0.0124256 0.0487344
internal_count=70731 65708 21624 5023 44084 1074 779 685 621 570 4761 4709 15577 28507 23134 20550 1720 20129 4672 10428 15887 5017 5149 3552 2732 14661 13044 7773 7211 5373
cat_boundaries=0 1 2
cat_threshold=33024 129
shrinkage=0.1


Tree=7
num_leaves=31
num_cat=0
split_feature=11 8 5 11 43 9 10 12 43 13 11 12 11 8 41 11 16 0 9 10 8 26 5 47 44 14 0 22 16 10
split_gain=6368.86 1136.95 604.574 583.096 169.749 96.7613 96.2896 82.3333 81.1489 78.3003 72.6379 64.3131 54.3959 78.6151 51.6217 46.7381 42.2579 59.0142 35.6234 33.7413 30.9073 23.0657 21.6001 19.4126 20.1584 17.6146 20.2338 17.3153 16.7351 15.9917
threshold=2.7820675743719723 6.013410013718218 3.8429285495983749 5.5519816280290764 1.0000000180025095e-35 4.0881352704127147 5.3499485971471774 6.3065838613110188 0.22237484737484739 2.8244898144879014 18.627855471706326 3.1024978393165519 8.9598800206383782 28.125930142577879 0.0038508865563660088 6.1477312833487963 2.7081543530604 19.500000000000004 1.3669119627008228 1.6574974821683626 0.76026311234993016 13.196022118705779 10.462413658364335 5.5000000000000009 0.26781931870937797 5.8182729393163894 26.500000000000004 14.07312687340489 6.625745232783304 15.462433508216742
decision_type=2 2 2 2 2 2 2 2 2 2 2 2 2 2 2 2 2 2 2 2 2 2 2 2 2 2 2 2 2 2
left_child=2 4 -1 5 14 -3 -7 -8 10 -9 15 -4 13 -5 -2 20 -17 22 -13 -20 -6 -22 -18 24 -10 26 28 -15 -19 -29
right_child=1 3 11 12 8 6 7 9 23 -11 -12 18 -14 27 -16 16 17 25 19 -21 21 -23 -24 -25 -26 -27 -28 29 -30 -31
leaf_value=-0.03527096534464054 -0.010330668838694495 -0.05190941629150217 0.013482685675292629 -0.038640408679211591 -0.045377470146944904 -0.043828796579486649 -0.019894301784465232 -0.022548082869138637 0.045931550930414081 0.18529260206684331 -0.014275931444428789 -0.0342883097760973 -0.058786498726375896 -0.01484327414294466 -0.041633811352692646 -0.0038846020956773072 0.017356194254952311 0.064935832766793405 -0.011493161529070473 0.19714481798230993 -0.0041791743797027301 0.060346645611827843 0.0011892299511141241 0.021388374149628686 0.2098196622412305 0.0086995252920069599 0.038667491095162605 0.006380699776219495 0.18043734754109031 0.15022825689935315
leaf_count=401 3402 137 61 1207 588 111 93 66 881 445 6975 20 19835 41 3403 4502 5355 134 24 4520 6436 178 5078 3622 24 567 2441 30 55 99
internal_value=0 -0.16091 1.77836 -0.500197 0.00323482 0.89061 1.12862 1.37769 0.0504765 1.62299 0.0190344 1.93198 -0.563183 -0.217095 -0.257926 0.0630374 0.110903 0.159917 1.95276 1.96187 -0.0586936 -0.0241376 0.0948386 0.271994 0.502672 0.368974 0.429638 0.878249 0.985394 1.17542
internal_count=70731 65705 5026 22064 43641 852 715 604 36836 511 32309 4625 21212 1377 6805 25334 18132 13630 4564 4544 7202 6614 10433 4527 905 3197 2630 170 189 129
shrinkage=0.1


Tree=8
num_leaves=31
num_cat=1
split_feature=12 8 12 6 9 44 11 10 13 12 42 11 10 45 0 17 0 6 17 35 9 12 48 12 8 1 37 1 37 37
split_gain=6443.81 1116.1 577.037 576.074 108.226 106.961 103.217 120.898 124.625 100.018 75.4923 48.0085 40.8788 40.6071 28.0094 26.7652 34.0616 69.6253 38.2358 25.6923 23.6058 20.36 19.3801 19.0485 50.9455 18.3625 33.4416 21.356 95.1094 48.8369
threshold=2.7720930705636007 6.4674680942591953 6.3065838613110188 4.3998295388506818 3.8801224207437683 0.0023204913095852698 4.2823182972716962 3.3068111389298545 4.0220330674082136 18.693917457915727 1.0000000180025095e-35 1.5356757456441337 1.406804673226101 0.027149343501847636 22.500000000000004 1.247838129884822 20.500000000000004 5.3622849574805658 4.4561081663040953 21.686666666666671 1.8782039254695124 18.55466383322285 0 10.01441960231262 25.635650956962319 5.273861400751267 31.286666666666669 0.83749624156947922 25.951666666666672 21.396666666666668
decision_type=2 2 2 2 2 2 2 2 2 2 2 2 2 2 2 2 2 2 2 2 2 2 1 2 2 2 2 2 2 2
left_child=3 5 4 14 -3 10 -6 -8 -9 13 21 -5 -13 19 -1 -15 -17 -18 -19 -7 -14 -2 -21 24 -4 27 -27 28 -20 -29
right_child=1 2 23 11 6 9 7 8 -10 -11 -12 12 20 15 -16 16 17 18 25 22 -22 -23 -24 -25 -26 26 -28 29 -30 -31
leaf_value=0.079365854207258349 0.0046942905125026517 -0.052446711109484394 -0.051354013980572516 -0.030236038572097834 -0.043019192111221377 0.0064725092059712414 -0.055328617749435566 -0.035463155517289513 0.18242710954526228 -0.013776245874831509 -0.039535044739358954 -0.047412368607420825 0.010993702303274636 -0.025250001040354731 -0.039643563859108499 0.0022753970830503754 -0.055349089490749619 0.010252409429921056 -0.058211168050903567 -0.013804241898713163 0.19795404262831723 -0.030101731034928421 0.030832431612852484 -0.058859864481960747 0.039281933571202611 0.049760784919820542 -0.033256029329856461 0.13837185088603193 0.096324289830639565 0.037536358115217681
leaf_count=76 2767 184 1510 30 142 2818 107 100 510 8195 3475 22 21 921 362 16205 365 2011 209 322 4512 674 4319 19051 229 468 222 266 301 337
internal_value=0 -0.16222 -0.501673 1.79146 0.752827 -0.000567843 0.99683 1.24491 1.5156 0.0372508 -0.205838 1.94963 1.96214 0.0863704 -0.186847 0.0466558 0.0599791 0.202307 0.271423 0.198917 1.97203 -0.0200012 0.279715 -0.571776 -0.389559 0.456803 0.231094 0.596543 0.331592 0.82071
internal_count=70731 65708 21833 5023 1043 43875 859 717 610 36959 6916 4585 4555 28764 438 21305 20384 4179 3814 7459 4533 3441 4641 20790 1739 1803 690 1113 510 603
cat_boundaries=0 1
cat_threshold=134221824
shrinkage=0.1


Tree=9
num_leaves=31
num_cat=0
split_feature=13 7 8 13 45 0 9 12 11 10 13 45 41 18 18 8 0 7 18 10 44 44 2 0 14 6 13 4 17 13
split_gain=5266.16 1927.74 1131.37 481.726 185.414 107.633 81.6952 90.7173 84.3563 89.1828 69.6004 65.5239 45.8961 44.778 37.0907 39.0885 32.6595 80.43 35.1017 19.8443 19.219 19.006 18.2428 17.8895 17.0642 26.2079 16.5934 16.1586 15.3141 15.406
threshold=2.8244898144879014 4.679406985018475 6.4674680942591953 6.6625858213252034 1.0000000180025095e-35 39.500000000000007 7.5568743525192792 4.8847108408096824 5.8142110382891117 4.0524683793643872 17.2219714317363 0.13714803312629403 0.0038508865563660088 1.4115417102184094 3.4184645674841008 1.0016985574512918 22.500000000000004 5.8329580795404441 4.8075097476773383 1.6574974821683626 1.0000000180025095e-35 1.0000000180025095e-35 37.445000000000007 19.500000000000004 4.2217117381418801 7.1240437954858198 17.639219077958312 5.4208071351419154 1.6234993034741099 12.89902515695259
decision_type=2 2 2 2 2 2 2 2 2 2 2 2 2 2 2 2 2 2 2 2 2 2 2 2 2 2 2 2 2 2
left_child=1 14 4 5 12 -4 -7 -8 -9 -10 11 13 26 -6 -1 -16 20 -18 -19 -3 -15 27 -13 -5 25 -23 -2 -12 29 -22
right_child=2 19 3 23 10 6 7 8 9 -11 21 22 -14 16 15 -17 17 18 -20 -21 28 24 -24 -25 -26 -27 -28 -29 -30 -31
leaf_value=-0.06111252792024971 -0.00073835147924953062 0.019288315859698743 -0.030856344644381986 0.045773021978786133 -0.034820940363547818 -0.035765131466922027 -0.047826589485445235 -0.036626755003521382 -0.032640618335441886 0.1866486626700673 0.096976055771228295 0.0095703411384124686 -0.035061187136225892 0.025658369700157238 -0.051920545438875393 0.085669273887180097 -0.049809011582335257 0.015584719110289103 0.055109512684394679 0.19897990018874079 0.036039163282016666 0.022315928964158467 0.033412439128327101 -0.057793214400731478 -0.018454044689082596 -0.0090028746789062985 -0.0279958213551822 0.011291677117881573 0.0020667157435701783 0.20163433748007026
leaf_count=1071 2636 20 328 54 834 144 102 82 70 439 73 1323 4874 1260 144 121 423 1464 1380 4536 102 1096 4429 20287 3691 4152 997 738 13839 22
internal_value=0 1.51291 -0.159105 -0.506071 0.00551937 0.589728 0.907195 1.13881 1.37681 1.61235 0.0630075 0.112663 -0.234571 0.0624602 -0.456205 0.140369 0.0805773 0.24215 0.347851 1.9832 0.0455098 -0.0663166 0.279323 -0.575043 -0.0905657 -0.0245606 -0.0821667 0.194338 0.0262849 0.654279
internal_count=70731 5892 64839 21506 43333 1165 837 693 591 509 34826 25076 8507 19324 1336 265 18490 3267 2844 4556 15223 9750 5752 20341 8939 5248 3633 811 13963 124
shrinkage=0.1


Tree=10
num_leaves=31
num_cat=0
split_feature=9 8 9 3 41 0 9 8 42 10 12 11 9 9 13 41 12 14 15 8 7 11 45 41 14 8 24 11 45 43
split_gain=5267.66 1111.22 518.765 319.503 109.75 80.0199 57.909 62.7429 47.145 44.7359 41.5303 42.2489 38.2015 45.6845 33.9409 30.4521 29.6662 28.1403 30.6517 25.9317 28.894 22.1007 21.9832 40.9369 21.8567 37.5737 20.8173 20.2773 18.8658 18.4719
threshold=2.919443296323498 6.4674680942591953 5.4223611093323552 5.2973106357032558 0.071167145441004373 39.500000000000007 8.1201262304986521 26.057366516379897 0.14157288317256164 3.6031721629177049 2.7720930705636007 3.7252785126910539 17.81407589262243 7.132208632092282 6.6625858213252034 1.0000000180025095e-35 0.92417530804496095 1.1289375536317356 7.2528477077277884 1.6479229294351267 5.9778340535695564 10.172312912993243 1.0000000180025095e-35 1.0000000180025095e-35 3.8003223531028847 1.2903487900563952 12.699657475690458 1.5356757456441337 0.19982014388489211 0.17661913250148545
decision_type=2 2 2 2 2 2 2 2 2 2 2 2 2 2 2 2 2 2 2 2 2 2 2 2 2 2 2 2 2 2
left_child=3 4 5 -1 8 -3 7 -4 22 -7 -11 -12 13 29 -13 28 -5 -15 24 20 -14 -9 -2 -24 -19 -26 -27 -18 -10 -6
right_child=1 2 6 16 12 9 -8 21 15 10 11 14 19 17 -16 -17 27 18 -20 -21 -22 -23 23 -25 25 26 -28 -29 -30 -31
leaf_value=-0.026511531303496719 0.0056608744287484167 -0.0074026297091138536 -0.036630522433869966 -0.061449189507351211 0.0030283477305902869 -0.051027743050537103 -0.058484649705459885 -0.052534300862277665 -0.046562632475898313 -0.062841265067767216 -0.047792022030438829 0.024940706344296036 0.041719521362649836 -0.019535186793997381 0.15632594825005783 -0.015435233146657274 -0.018136607517457458 0.01224143214442275 0.00051342074747093172 -0.018856801844704677 -0.0018950966242057971 0.10239928993396406 -0.041359761133128441 -0.0034255517439713556 0.05227733111007276 0.031391527479203901 0.0092650844791636825 0.15551143614425073 0.018458537193819412 -0.019366833999434129
leaf_count=318 4106 258 840 21 3237 52 19530 37 1846 37 38 64 510 709 400 4665 21 5917 3088 2571 3950 132 1094 4134 1321 2422 2603 4944 153 1713
internal_value=0 -0.154257 -0.498265 1.46028 -0.00138217 0.751583 -0.562112 -0.150288 -0.117253 1.05835 1.18215 1.28958 0.0633649 0.0999641 1.40818 -0.230944 1.54315 0.144073 0.159345 -0.0478558 0.0314559 0.747326 -0.0381776 -0.113163 0.197606 0.267443 0.19925 1.5496 -0.415768 -0.0467152
internal_count=70731 65427 21388 5304 44039 849 20539 1009 15998 591 539 502 28041 21010 464 6664 4986 16060 15351 7031 4460 169 9334 5228 12263 6346 5025 4965 1999 4950
shrinkage=0.1


Tree=11
num_leaves=31
num_cat=1
split_feature=10 8 10 4 42 0 9 11 11 13 12 9 10 15 43 42 12 10 45 10 8 10 4 0 10 48 45 22 8 10
split_gain=5165.9 1102.04 453.802 376.269 178.625 97.8603 62.3515 72.9612 61.5186 56.6305 60.7376 50.0715 41.7067 37.0834 38.7955 81.9944 29.7955 22.1136 21.9469 21.2241 47.5886 20.8291 21.0153 24.9058 28.4583 20.3386 19.9603 19.4754 18.6238 16.7751
threshold=2.9812245462127405 6.4674680942591953 6.2849741447360019 5.4208071351419154 0.14776300743281875 39.500000000000007 5.3038665133196004 5.1101369835285633 2.0841425067267045 5.6198620952742759 5.0293339442228229 2.1673370595305594 15.982005495826551 1.2813274366843161 1.0000000180025095e-35 1.0000000180025095e-35 0.68447059834590729 1.406804673226101 0.036341624477217706 9.585045642486195 35.092685133029057 19.537841487421471 6.8293264657915866 28.500000000000004 14.033607875311914 0 0.070407954976234241 18.146485881089479 10.179877207764571 17.972567981462849
decision_type=2 2 2 2 2 2 2 2 2 2 2 2 2 2 2 2 2 2 2 2 2 2 2 2 2 1 2 2 2 2
left_child=3 4 5 17 13 28 -7 -8 -5 -9 -11 -10 18 -2 29 -16 -13 -1 -6 20 -4 22 -17 25 -25 -24 -14 -20 -3 -15
right_child=1 2 19 8 12 6 7 9 11 10 -12 16 26 14 15 21 -18 -19 27 -21 -22 -23 23 24 -26 -27 -28 -29 -30 -31
leaf_value=0.062978165010538448 -0.03146208640927714 0.07141709248181824 -0.042808728810784819 -0.042985584052386533 0.032472904947647117 -0.054400714409694843 -0.042352232905967256 -0.024020383220791024 -0.011246611755667451 -0.048845310608626069 0.15705958632470388 -0.048021606231472266 0.011871984668776172 0.012357293975997904 -0.038765252568342463 -0.011563432276187819 0.15904925791873259 -0.046234863463467758 0.010974429478852877 -0.058353739336686444 0.11516111346005756 -0.019846088509761727 0.027184162472077368 0.034850376543849419 -0.0025376036859042234 -0.006245176393643765 -0.0099113375265005542 0.033422771068662295 -0.037783776875265782 -0.012328804347576664
leaf_count=67 2022 54 1434 49 3301 93 98 74 55 51 429 22 2764 3912 2783 6040 4800 309 5681 18830 56 2821 542 1275 1211 6758 2385 1429 332 1054
internal_value=0 -0.154016 -0.498364 1.45465 -0.00039241 0.53631 0.865084 1.02523 1.55422 1.22822 1.40544 1.56908 0.147628 -0.0841622 -0.0666707 -0.0995757 1.58346 -0.256887 0.209787 -0.566608 -0.358666 -0.0583441 -0.0337275 0.0162249 0.167061 -0.035527 0.0187514 0.155423 -0.212186 0.0712187
internal_count=70731 65429 21451 5302 43978 1131 745 652 4926 554 480 4877 15560 28418 26396 21430 4822 376 10411 20320 1490 18647 15826 9786 2486 7300 5149 7110 386 4966
cat_boundaries=0 1
cat_threshold=16640
shrinkage=0.1


Tree=12
num_leaves=31
num_cat=0
split_feature=11 8 11 5 43 9 43 10 12 13 11 8 11 41 12 11 5 0 9 10 0 16 16 16 18 28 32 5 18 32
split_gain=5033.12 1049.1 520.306 434.721 154.526 76.3407 74.3342 73.8028 60.5161 59.7431 53.4908 67.9083 48.6627 48.3665 45.2687 31.736 30.056 40.2859 24.9948 24.1537 23.8279 20.8867 20.4433 18.3786 18.2826 17.439 17.2349 16.5249 17.5638 17.1821
threshold=2.7820675743719723 6.013410013718218 5.5519816280290764 3.8429285495983749 1.0000000180025095e-35 4.0881352704127147 0.14924182396422411 5.3499485971471774 4.9817316265296743 2.1503719622738973 8.9598800206383782 28.125930142577879 18.627855471706326 0.0038508865563660088 2.3954644332343897 19.888210075295614 6.4839532676746297 13.500000000000002 1.3669119627008228 1.6574974821683626 34.500000000000007 11.772117413760714 0.94429868156214225 1.8332757564687727 5.0603013676498252 23.057670088549411 50.695000000000007 2.6602725422793028 2.8768211614848087 36.755000000000003
decision_type=2 2 2 2 2 2 2 2 2 2 2 2 2 2 2 2 2 2 2 2 2 2 2 2 2 2 2 2 2 2
left_child=3 4 5 -1 13 -3 12 -7 -9 -10 11 -4 16 -2 -5 22 17 21 -16 -20 23 26 -8 -18 -25 27 -6 -24 -29 -30
right_child=1 2 10 14 6 7 15 8 9 -11 -12 -13 -14 -15 18 -17 20 -19 19 -21 -22 -23 25 24 -26 -27 -28 28 29 -31
leaf_value=-0.034248035763140283 -0.0099515097753330589 -0.050519439608451726 -0.037197332067786158 -0.010608533861177126 -0.013701761616741054 -0.042484441319139032 -0.0301245662546211 -0.032072177534970395 -0.030639738574564514 0.15307638756755301 -0.057777798743639898 0.077908786450476053 -0.017064853388111551 -0.040517842305296987 -0.032880919069602547 -0.0028741633118057951 -0.021462611731354966 -0.04668358101519901 -0.01216426558989522 0.16361250333273 0.024658370166270066 0.055495290391072684 -0.013266345205066511 0.015788924325036761 -0.00029040404267989019 0.044926827278951836 0.0052663823617491237 0.034995712646605302 0.0011204424943523324 0.021412990691095243
leaf_count=401 3402 137 1207 47 2899 111 250 80 65 459 19835 170 4938 3403 20 2409 802 735 24 4534 2215 187 481 3936 5090 862 3223 1993 1746 5070
internal_value=0 -0.152188 -0.488246 1.49291 0.00302554 0.790159 0.0476488 0.98455 1.18319 1.35735 -0.552294 -0.205433 -0.0110834 -0.248669 1.60849 0.155949 0.0291649 -0.0638624 1.62219 1.62889 0.0825594 -0.0185559 0.197766 0.0447719 0.0674472 0.209993 -0.0369165 0.187708 0.204948 0.162285
internal_count=70731 65705 22064 5026 43641 852 36836 715 604 524 21212 1377 24025 6805 4625 12811 19087 7044 4578 4558 12043 6309 10402 9828 9026 10152 6122 9290 8809 6816
shrinkage=0.1


Tree=13
num_leaves=31
num_cat=0
split_feature=12 8 12 6 44 12 9 11 10 13 42 17 0 6 11 10 12 45 0 35 9 37 1 12 8 12 6 12 12 8
split_gain=5092.91 1030.81 519.781 408.277 97.5672 90.0508 86.9384 79.8272 91.1095 89.7081 69.7929 37.3426 45.3685 88.3978 35.1825 30.5416 30.1385 26.5395 25.9406 21.6098 20.6947 19.4862 53.7764 19.0967 46.9164 18.9033 24.5026 21.5988 18.6757 18.1144
threshold=2.7720930705636007 6.4674680942591953 6.3065838613110188 4.0051903593343896 0.0023204913095852698 18.693917457915727 3.8801224207437683 4.2823182972716962 3.3068111389298545 5.93506529028957 1.0000000180025095e-35 1.3649358948246479 22.500000000000004 5.4528983114137572 1.5356757456441337 1.406804673226101 14.742760935104657 0.027149343501847636 22.500000000000004 21.686666666666671 1.5994528902956502 39.431666666666679 3.1471777071961751 10.01441960231262 25.635650956962319 4.9357775472873291 8.8135435547949665 9.3760306077704083 18.55466383322285 0.80224684480526365
decision_type=2 2 2 2 2 2 2 2 2 2 2 2 2 2 2 2 2 2 2 2 2 2 2 2 2 2 2 2 2 2
left_child=3 4 6 18 10 11 -3 -8 -9 -10 28 -6 17 -14 -5 -16 25 19 -1 -13 -17 -18 -23 24 -4 -15 -27 -28 -2 -7
right_child=1 2 23 14 5 29 7 8 9 -11 -12 12 13 16 15 20 21 -19 -20 -21 -22 22 -24 -25 -26 26 27 -29 -30 -31
leaf_value=0.071942387862387477 0.004258632259003442 -0.051115572886171114 -0.050103840315722195 -0.030412182814570938 -0.020747483948165123 -0.0040908570589686102 -0.04156099693085874 -0.054100966621885349 -0.025098254166077961 0.15325579083928612 -0.038419582028944771 0.0021121712396306998 -0.051939187392931442 0.13883593282893303 -0.046839156865314951 -0.015709437566716472 0.0027062624426865863 0.0022726935733907712 -0.040910521230006262 0.024393902808602048 0.16443331980830134 0.11803604933186368 -0.030597280399560847 -0.057864125260213596 0.036278939728369416 0.010986304512459187 0.093800368140679047 0.041628663821638871 -0.02927319222970387 -0.021066022347998627
leaf_count=76 2767 184 1510 30 1380 3800 142 107 108 502 3475 2171 469 60 23 20 1362 16278 355 3639 4519 168 137 19051 229 732 270 2098 674 4395
internal_value=0 -0.153493 -0.489853 1.50344 -0.000546298 0.035305 0.673076 0.87581 1.07573 1.28621 -0.198125 0.0815387 0.0956884 0.241565 1.62105 1.6306 0.309397 0.0599621 -0.194791 0.16189 1.63825 0.11729 0.519092 -0.561215 -0.375505 0.409171 0.390517 0.476485 -0.020818 -0.13176
internal_count=70731 65708 21833 5023 43875 36959 1043 859 717 610 6916 28764 27384 5296 4592 4562 4827 22088 431 5810 4539 1667 305 20790 1739 3160 3100 2368 3441 8195
shrinkage=0.1


Tree=14
num_leaves=31
num_cat=0
split_feature=13 7 8 13 45 9 11 12 10 13 45 41 18 18 8 0 7 6 13 8 6 4 41 5 2 44 2 14 0 43
split_gain=4222.24 1411.54 1045.6 439.79 168.592 88.2742 83.2615 109.021 109.073 62.1274 57.7323 42.6909 33.5905 30.6181 31.3625 22.8381 49.5306 21.5046 18.1013 17.6847 24.5916 17.6756 17.1468 17.9416 17.1059 17.484 16.5322 16.1376 15.9885 15.7029
threshold=2.8244898144879014 4.0576779072581681 6.4674680942591953 6.6625858213252034 1.0000000180025095e-35 7.5568743525192792 3.1174668966695558 3.9832457896789721 2.2608405239622029 17.2219714317363 0.10354486622235103 0.0038508865563660088 1.4115417102184094 3.4184645674841008 1.0016985574512918 27.500000000000004 5.5985131935438792 20.078179678686887 5.6198620952742759 2.3402777597320794 7.1240437954858198 5.6046632367692268 0.028079417983729354 3.0103322068479454 90.545000000000016 0.20900227905798938 91.605000000000004 4.0103179389756365 19.500000000000004 0.25402100732304239
decision_type=2 2 2 2 2 2 2 2 2 2 2 2 2 2 2 2 2 2 2 2 2 2 2 2 2 2 2 2 2 2
left_child=1 13 4 5 11 -4 -7 -8 -9 10 12 -2 -6 -1 -15 -14 -17 22 -18 20 27 -22 23 -12 29 -26 -19 -11 -5 -24
right_child=2 -3 3 28 9 6 7 8 -10 19 17 -13 15 14 -16 16 18 26 -20 -21 21 -23 24 -25 25 -27 -28 -29 -30 -31
leaf_value=-0.060420790789248405 -0.0079272090335891221 0.16432182322903047 -0.042512466179303293 0.038240403216226279 -0.035924593475813935 -0.057988038960002486 -0.053082816917187248 -0.05389062376610524 0.15003873312923122 0.046004932223105754 0.11717646316030383 -0.033984810421264944 0.0025019000055024748 -0.050943584882970162 0.074661957700844397 -0.049400363179509049 0.12514680455501079 0.036549250517121899 0.027573361737502973 -0.015422986635462764 0.033449650121897198 -0.0080251436158261368 0.0131670452128239 0.032005138733999405 0.034076619546768036 0.18297617807917096 0.10826420999659243 -0.0049382990130766016 -0.056785487168828912 -0.039743855280127555
leaf_count=1067 3633 4570 266 54 686 139 145 105 510 552 83 4874 12532 144 111 301 58 1187 2063 4069 358 4459 5992 1049 808 25 109 312 20287 183
internal_value=0 1.28859 -0.150481 -0.49454 0.00524784 0.533571 0.770017 0.967469 1.23447 0.0595386 0.106099 -0.225906 0.0388675 -0.459717 0.0922151 0.0561733 0.213066 0.214995 0.30356 -0.063114 0.00172416 -0.049068 0.181131 0.38269 0.148332 0.386291 0.425959 0.278559 -0.564889 0.116107
internal_count=70731 5892 64839 21506 43333 1165 899 760 615 34826 25076 8507 15640 1322 255 14954 2422 9436 2121 9750 5681 4817 8140 1132 7008 833 1296 864 20341 6175
shrinkage=0.1


Tree=15
num_leaves=31
num_cat=1
split_feature=9 8 3 9 8 41 3 3 0 41 10 12 11 13 12 10 18 14 2 42 9 43 36 48 42 43 9 11 14 47
split_gain=4306.65 1088.22 343.877 325.452 115.616 99.7658 48.3875 50.5135 35.2844 33.4839 29.2488 34.5627 32.5139 29.6516 28.9756 27.31 25.4739 36.6042 22.9544 21.7522 21.4078 20.2038 19.1913 19.7227 23.2287 20.5223 19.0882 17.5181 16.2599 17.042
threshold=3.2583277858748665 6.4674680942591953 5.5109799490365541 7.295553429452208 20.224428297107412 0.16503658711559618 6.8303111201273952 20.451946116404333 17.500000000000004 0.0038508865563660088 4.9942166538473929 5.7894472965841413 4.3842331141066646 4.2013688239550335 1.8014853244744866 0.88470315959235324 4.0447558640741024 3.8687788769786358 90.240000000000023 0.14379294643596327 17.81407589262243 1.0000000180025095e-35 45.296666666666674 0 0.0033501683501683502 0.0095837695854227526 4.7859690760880822 1.0819889054228349 1.9573962296888172 4.5000000000000009
decision_type=2 2 2 2 2 2 2 2 2 2 2 2 2 2 2 2 2 2 2 2 2 2 2 1 2 2 2 2 2 2
left_child=2 5 -1 4 26 6 8 16 9 21 -6 -12 -13 -14 -4 -16 17 -8 -19 -18 22 -2 23 24 -7 -25 -3 -17 -27 -30
right_child=1 3 14 -5 10 20 7 -9 -10 -11 11 12 13 -15 15 27 19 18 -20 -21 -22 -23 -24 25 -26 28 -28 -29 29 -31
leaf_value=-0.026731985160054095 -0.010517567071831505 0.021133269632159071 -0.017920922063314443 -0.056912081914361784 -0.039738834663605484 0.11385684136945642 -2.0798928459918512e-05 -0.018391115098019068 -0.05141951288811511 -0.0069974827719892375 -0.044407202729335876 -0.04540702449926181 -0.0096881845923896988 0.13962968020733912 3.5572086215001173e-05 -0.030858902233452029 0.0036970647386596217 0.029740970721274736 -0.024645640907598989 -0.012916794867673232 0.00048727574025348754 -0.049479330809318364 0.056122065145421542 0.033562583168207497 0.029033728766638713 -0.011923246548434203 -0.033094164745525081 0.13559541177086806 0.032432684950116308 0.0078532964002743563
leaf_count=444 661 305 38 19886 50 101 4083 4332 832 5833 46 39 44 315 41 20 5867 2742 253 4021 3761 1127 332 1043 1103 1029 556 5040 968 5819
internal_value=0 -0.14918 1.24305 -0.502597 0.295142 -0.000510682 -0.0583451 -0.0146185 -0.17135 -0.133679 0.879746 0.995961 1.12884 1.25305 1.33453 1.34269 0.0276424 0.10683 0.251536 -0.0292943 0.117815 -0.347212 0.157417 0.144005 0.346044 0.113281 -0.123821 1.3514 0.08333 0.113627
internal_count=70731 65148 5583 21241 1355 43907 29751 21298 8453 7621 494 444 398 359 5139 5101 16966 7078 2995 9888 14156 1788 10395 10063 1204 8859 861 5060 7816 6787
cat_boundaries=0 1
cat_threshold=66
shrinkage=0.1


Tree=16
num_leaves=31
num_cat=1
split_feature=10 8 10 4 42 0 9 11 11 13 12 10 9 15 43 42 12 10 8 10 35 35 24 10 48 8 3 39 19 8
split_gain=4218.93 1015.56 414.828 288.749 158.752 79.9193 50.4683 57.6024 47.4581 43.1482 46.467 36.6934 36.6904 34.5418 33.7046 76.6721 22.5083 21.2658 43.7534 20.0128 19.0615 20.8505 25.3457 19.0383 20.4739 18.5489 18.1327 18.0249 17.1648 16.5556
threshold=2.9812245462127405 6.4674680942591953 6.2849741447360019 5.4208071351419154 0.14776300743281875 39.500000000000007 5.3038665133196004 5.1101369835285633 2.0841425067267045 5.6198620952742759 3.46217417112255 15.982005495826551 2.1673370595305594 1.2813274366843161 1.0000000180025095e-35 1.0000000180025095e-35 0.92417530804496095 9.585045642486195 27.082644811723139 1.406804673226101 38.83666666666668 17.331666666666671 6.8299414335907933 20.557924262143874 0 1.8078578293014884 20.348741971866779 50.725000000000001 6.334773081905686 10.457700510799414
decision_type=2 2 2 2 2 2 2 2 2 2 2 2 2 2 2 2 2 2 2 2 2 2 2 2 1 2 2 2 2 2
left_child=3 4 5 19 13 29 -7 -8 -5 -9 -11 20 -10 -2 -15 -16 -14 18 -4 -1 21 22 -6 24 -17 -13 -23 28 -24 -3
right_child=1 2 17 8 11 6 7 9 12 10 -12 25 16 14 15 23 -18 -19 -20 -21 -22 26 27 -25 -26 -27 -28 -29 -30 -31
leaf_value=0.057513074821106271 -0.030462151620417682 0.055965200765214364 -0.046092790640972013 -0.041953100701803275 0.090318825835329131 -0.053086693757974715 -0.040830896049124196 -0.022485257403481288 -0.009629223224841825 -0.060690941306929258 0.13466443607821532 0.010001636273028353 -0.019101596090675563 0.0064807322118513354 -0.03766710060988851 0.017565153829615574 0.13780445154304347 -0.057336119319911671 0.051084576486041991 -0.045172048222551393 0.04040701313969472 0.0097546256684559671 0.097905057207475693 -0.021272556987829899 -0.0052384053544906944 -0.011481613689766692 0.037613694729330689 0.0090905735150176321 0.033019928691834725 -0.038340959672019073
leaf_count=67 2022 67 1335 49 197 93 98 74 55 45 435 3150 29 4966 2783 1249 4793 18830 155 309 1145 6469 140 2145 15253 1999 760 920 780 319
internal_value=0 -0.145382 -0.486558 1.26733 -0.000323415 0.492036 0.777886 0.912633 1.34818 1.0807 1.22428 0.138215 1.36018 -0.0799082 -0.0630997 -0.0940693 1.37151 -0.555803 -0.343966 -0.248059 0.195936 0.170187 0.322868 -0.0544625 -0.0344401 0.0172089 0.127043 0.26024 0.42935 -0.199066
internal_count=70731 65429 21451 5302 43978 1131 745 652 4926 554 480 15560 4877 28418 26396 21430 4822 20320 1490 376 10411 9266 2037 18647 16502 5149 7229 1840 920 386
cat_boundaries=0 1
cat_threshold=1073742080
shrinkage=0.1


Tree=17
num_leaves=31
num_cat=1
split_feature=11 8 11 5 43 0 43 9 41 10 11 12 13 12 11 8 11 11 8 16 16 0 9 10 16 31 27 47 29 48
split_gain=4089.51 967.491 468.733 331.796 140.567 85.9355 65.0365 59.4246 45.6361 45.518 44.0706 43.3114 34.9572 34.7947 30.8251 34.8895 27.7123 27.1492 22.1636 20.2819 20.0982 34.6972 18.7606 18.6418 18.2831 15.6411 15.6932 15.583 15.5681 15.5375
threshold=2.7820675743719723 6.013410013718218 6.3066036818547824 3.8429285495983749 1.0000000180025095e-35 37.500000000000007 0.14924182396422411 4.6761362254841794 0.016329744006501425 5.3499485971471774 18.627855471706326 4.7221075798803831 2.1503719622738973 3.1024978393165519 8.9598800206383782 22.842856632713996 19.888210075295614 6.1477312833487963 0.82873397420403105 9.6001302074503148 2.7081543530604 19.500000000000004 1.3669119627008228 1.6574974821683626 0.94429868156214225 86.345000000000013 11.684145240408901 10.500000000000002 71.315000000000012 0
decision_type=2 2 2 2 2 2 2 2 2 2 2 2 2 2 2 2 2 2 2 2 2 2 2 2 2 2 2 2 2 1
left_child=3 4 5 25 8 -3 10 -7 28 -9 17 -11 -13 -5 15 -4 24 18 -6 -20 -19 -22 -15 -24 -8 -1 -27 -21 29 -2
right_child=1 2 14 13 6 7 16 9 -10 11 -12 12 -14 22 -16 -17 -18 20 19 27 21 -23 23 -25 -26 26 -28 -29 -30 -31
leaf_value=-0.050672046251063543 0.031130633208917721 -0.022434265005826091 -0.043436663957051223 0.009049077149426597 -0.042446969780267518 -0.047036022931734874 -0.029207407750304892 -0.028105403740297331 -0.040106851589032239 -0.02582625415895495 -0.016314194224574526 -0.020492113254571717 0.13843182651158722 -0.031547148898629598 -0.056826970297909896 0.033262126587207529 -0.0027408839152435792 -0.0048764034485448641 -0.0075707007944076435 0.011847311497222325 0.0050476572198032499 0.029024874352242238 -0.012811792773480924 0.14103794291262481 0.019546434441355738 0.12520982462181135 -0.042820157898837391 0.081117993596003302 0.0076440181440471204 -0.021558913959311692
leaf_count=326 147 325 887 61 552 108 250 87 3262 70 4938 51 465 20 19835 236 2409 3245 4975 465 7271 2450 24 4520 10152 38 37 129 1102 2294
internal_value=0 -0.143745 -0.476942 1.29347 0.00284564 0.583374 0.0449936 0.856141 -0.239599 1.00978 -0.0101881 1.14472 1.27521 1.38624 -0.549988 -0.252189 0.145567 0.0278893 -0.071024 -0.038076 0.0731921 0.112851 1.39915 1.40446 0.184155 -0.33248 0.423588 0.27151 -0.100868 -0.180996
internal_count=70731 65705 22064 5026 43641 1106 36836 781 6805 673 24025 586 516 4625 20958 1123 12811 19087 6121 5569 12966 9721 4564 4544 10402 401 75 594 3543 2441
cat_boundaries=0 1
cat_threshold=524292
shrinkage=0.1


Tree=18
num_leaves=31
num_cat=1
split_feature=12 8 12 8 44 12 9 42 11 10 13 17 0 6 11 17 6 45 10 12 8 35 17 0 12 8 3 48 6 18
split_gain=4140.73 951.649 470.929 309.634 89.2458 80.7317 71.3659 64.9904 63.5403 71.2986 68.2218 33.9208 39.5725 79.4031 31.3589 27.8071 24.5463 22.7685 21.8367 19.23 31.0187 18.8399 17.6483 17.6382 17.1736 16.4314 16.6794 16.1684 16.1036 15.8517
threshold=2.7720930705636007 6.4674680942591953 6.3065838613110188 1.4128694207179961 0.0023204913095852698 18.693917457915727 3.8801224207437683 1.0000000180025095e-35 4.2823182972716962 3.3068111389298545 4.0220330674082136 1.3649358948246479 22.500000000000004 5.3622849574805658 2.0841425067267045 4.4561081663040953 6.0454155836031225 0.027149343501847636 1.406804673226101 8.9552638146137831 26.573507483948937 21.686666666666671 2.9119237627383039 29.500000000000004 18.55466383322285 0.80224684480526365 7.5424399227802876 0 8.6341415311936895 6.7129613406485058
decision_type=2 2 2 2 2 2 2 2 2 2 2 2 2 2 2 2 2 2 2 2 2 2 2 2 2 2 2 1 2 2
left_child=3 4 6 -1 7 11 -3 24 -8 -10 -11 28 17 -14 -5 -15 22 21 -18 20 -4 -13 -16 29 -2 26 -7 -19 -6 -17
right_child=1 2 19 14 5 25 8 -9 9 10 -12 12 13 15 16 23 18 27 -20 -21 -22 -23 -24 -25 -26 -27 -28 -29 -30 -31
leaf_value=-0.042234019971935703 0.0039274540721046785 -0.049796638392609983 -0.044588498415375835 0.004053219732492618 -0.058966772842020211 0.030545288927873934 -0.040047583806874315 -0.037391430851655257 -0.052891942293571026 -0.032792418591155968 0.13080857934702278 0.0018999348575091377 -0.052853055983585133 0.015901262961388007 -0.032733043130257086 0.090070409689397196 -0.04468577033059886 0.024883774971487981 0.14168944311618334 -0.056539181927957295 0.042224554947491402 0.022626753068451588 0.10771934787080387 0.035213065524508431 -0.028434709277024579 -0.020160209596720713 -0.0080540326098239509 0.00082491505529716503 -0.010204984467828779 6.3815977331414513e-05
leaf_count=332 2767 184 953 50 282 402 142 3475 107 100 510 2171 449 2547 41 336 22 877 4496 19691 146 3639 82 1893 674 4395 3398 15401 1098 71
internal_value=0 -0.145051 -0.478723 1.30274 -0.000508681 0.0335431 0.611117 -0.190874 0.784198 0.950981 1.12189 0.0769772 0.0903128 0.225438 1.38451 0.28606 1.39564 0.0568575 1.41113 -0.551176 -0.309286 0.150607 0.633154 0.422181 -0.0209087 -0.125613 -0.0392521 0.022244 -0.200265 0.746555
internal_count=70731 65708 21833 5023 43875 36959 1043 6916 859 717 610 28764 27384 5296 4691 4847 4641 22088 4518 20790 1099 5810 123 2300 3441 8195 3800 16278 1380 407
cat_boundaries=0 1
cat_threshold=1074790400
shrinkage=0.1


Tree=19
num_leaves=31
num_cat=0
split_feature=13 7 8 13 45 9 11 12 10 13 18 45 41 18 8 0 7 18 44 45 2 13 8 0 13 44 0 24 8 6
split_gain=3466.75 1089.99 965.739 402.057 152.812 73.3917 67.9328 85.9092 83.07 55.3788 52.5067 48.5671 39.8589 29.406 27.8092 25.6724 66.5611 28.5071 15.8579 16.5576 15.5669 15.4378 43.87 15.6723 15.4345 15.4165 15.0495 14.2728 14.1583 14.4665
threshold=2.8244898144879014 4.0576779072581681 6.4674680942591953 6.6625858213252034 1.0000000180025095e-35 7.5568743525192792 3.1174668966695558 3.9832457896789721 2.2608405239622029 17.2219714317363 1.44020831659134 0.13714803312629403 0.0038508865563660088 3.4184645674841008 1.0016985574512918 22.500000000000004 5.8329580795404441 4.8075097476773383 1.0000000180025095e-35 0.19858145482662226 37.445000000000007 9.4298223734530762 30.880921292692801 22.500000000000004 17.639219077958312 1.0000000180025095e-35 34.500000000000007 19.307700534714005 1.710584695360041 5.7139303456639512
decision_type=2 2 2 2 2 2 2 2 2 2 2 2 2 2 2 2 2 2 2 2 2 2 2 2 2 2 2 2 2 2
left_child=1 13 4 5 12 -4 -7 -8 -9 10 -6 15 24 -1 -15 25 -17 -18 -11 28 -13 22 -5 -23 -2 -12 -19 -22 29 -20
right_child=2 -3 3 21 9 6 7 8 -10 18 11 20 -14 14 -16 16 17 26 19 -21 27 23 -24 -25 -26 -27 -28 -29 -30 -31
leaf_value=-0.059757110366369021 -0.00039615213647331468 0.14134281594105355 -0.041144115413865798 -0.044318340425866083 -0.029622110740007992 -0.056979517324542976 -0.051880074300453452 -0.052676393337140449 0.12874607837489049 0.017562244041734679 0.022706676988670363 0.0088104710866621447 -0.032927244535807448 -0.050034678040905084 0.068061474955047066 -0.048297882152629194 0.013091134187737439 0.070804532974831719 0.027200221166449979 0.020266427448700601 0.026485462125294974 0.036953970883605636 0.10145790610352534 -0.057181408975493987 -0.026901186960333435 0.0023407273180214485 0.033702800478226096 0.053643950555812739 -0.018682581591756099 -0.0070084405501622486
leaf_count=1067 2636 4570 266 1094 1070 139 145 105 510 811 1260 1272 4874 144 111 420 1443 543 429 619 3571 51 78 19118 997 13955 837 705 3769 4122
internal_value=0 1.12795 -0.142158 -0.483669 0.00496974 0.487213 0.692794 0.859218 1.07747 0.0561657 0.0998086 0.116513 -0.217231 -0.450084 0.0878264 0.0719884 0.213622 0.304732 -0.0600596 -0.0826352 0.259738 -0.555227 -0.339811 -0.568523 -0.0758058 0.0407901 0.481564 0.309956 -0.103973 -0.0364465
internal_count=70731 5892 64839 21506 43333 1165 899 760 615 34826 25076 24006 8507 1322 255 18458 3243 2823 9750 8939 5548 20341 1172 19169 3633 15215 1380 4276 8320 4551
shrinkage=0.1


Tree=20
num_leaves=31
num_cat=1
split_feature=9 8 9 3 8 41 42 43 48 3 41 14 9 8 10 12 11 13 12 14 10 42 35 9 9 34 27 10 12 11
split_gain=3583.65 1002.08 302.455 275.359 95.8347 89.5701 40.3476 32.1353 31.0392 30.4289 27.4472 25.0287 26.7196 24.6445 23.6989 27.6879 25.7133 22.9734 22.5018 21.4727 21.4464 18.8254 19.1738 18.7324 18.8138 17.7051 18.6568 17.4554 29.0497 42.5221
threshold=3.2583277858748665 6.4674680942591953 7.295553429452208 5.5109799490365541 20.224428297107412 0.071167145441004373 0.14379294643596327 0.016239284039916955 0 20.451946116404333 1.0000000180025095e-35 1.1289375536317356 7.3760219626424011 1.1912808009495712 4.9942166538473929 5.7894472965841413 4.3842331141066646 4.2013688239550335 0.92417530804496095 3.7662315377036761 0.88470315959235324 0.011614417525495064 23.221666666666671 5.9740898885152243 20.221243779166951 32.356666666666676 22.746714047387069 4.3142496341398937 5.131237667463866 3.7252785126910539
decision_type=2 2 2 2 2 2 2 2 1 2 2 2 2 2 2 2 2 2 2 2 2 2 2 2 2 2 2 2 2 2
left_child=3 5 4 -1 27 6 23 21 -9 11 -8 -10 25 19 -6 -16 -17 -18 -5 -14 -20 22 -7 -2 -25 -13 -27 -3 -29 -30
right_child=1 2 -4 18 14 7 10 8 9 -11 -12 12 13 -15 15 16 17 -19 20 -21 -22 -23 -24 24 -26 26 -28 28 29 -31
leaf_value=-0.025787207394273981 -0.017000251644166561 -0.056305495330558675 -0.055896032062223648 -0.060258100451578804 -0.038066057840679707 0.0085529604737595542 -0.039628878370780808 -0.019509933499130085 -0.02244857760573082 -0.009418176625257969 -0.014140964128338136 -0.0090153930763192738 0.012960757071480629 0.0087690562824685719 -0.04266458195272458 -0.043865242798385051 -0.008967269549856622 0.12280874960454524 -1.5111434694737108e-05 0.041467186263001436 0.11977530960657123 0.015952774658145329 0.083425623219964676 0.0053782817854751584 -0.017547151911595279 0.013254029806087067 0.12497917700314042 -0.057672635341666945 -0.058674262905933972 0.06027145254422548
leaf_count=444 2393 226 19886 25 50 161 1977 1630 803 3729 4571 3277 1693 10786 46 39 44 315 41 1389 5073 3489 250 5611 1363 737 48 193 143 299
internal_value=0 -0.140594 -0.491193 1.10749 0.2751 -0.000461905 -0.106531 0.0574878 0.03361 0.0502073 -0.215157 0.0782673 0.0913514 0.126638 0.794414 0.893786 1.00584 1.10904 1.18526 0.2606 1.19039 0.200302 0.54233 -0.0343863 0.0102614 -0.0336734 0.201468 -0.114864 0.0292359 0.263641
internal_count=70731 65148 21241 5583 1355 43907 15915 27992 24092 22462 6548 18733 17930 13868 494 444 398 359 5139 3082 5114 3900 411 9367 6974 4062 785 861 635 442
cat_boundaries=0 1
cat_threshold=540672
shrinkage=0.1


Tree=21
num_leaves=31
num_cat=0
split_feature=10 8 10 4 42 9 11 12 13 11 41 15 43 42 9 45 2 42 2 10 10 8 47 34 5 10 10 4 0 10
split_gain=3508 935.104 379.454 230.793 141.311 66.6546 82.2477 74.7471 73.9469 38.2257 33.2922 32.3885 29.0854 71.5542 28.6911 26.3542 23.6541 22.6175 27.7408 22.0973 21.3318 39.6043 21.0639 19.3285 25.2776 18.2284 17.7689 18.9205 22.0084 24.6399
threshold=2.9812245462127405 6.4674680942591953 6.2849741447360019 5.4208071351419154 0.14776300743281875 5.3038665133196004 4.1426379729607481 3.46217417112255 3.4590967025280626 3.1174668966695558 0.09264705882352943 1.2813274366843161 1.0000000180025095e-35 1.0000000180025095e-35 2.1673370595305594 0.10035971223021584 77.375000000000014 0.1688750438750439 52.935000000000009 15.982005495826551 9.585045642486195 26.573507483948937 3.5000000000000004 24.526666666666671 2.8251813551007636 1.406804673226101 19.537841487421471 6.8293264657915866 28.500000000000004 14.033607875311914
decision_type=2 2 2 2 2 2 2 2 2 2 2 2 2 2 2 2 2 2 2 2 2 2 2 2 2 2 2 2 2 2
left_child=3 4 5 25 11 -3 -7 -8 -9 -5 15 -2 -13 -14 -11 16 -6 22 23 -12 21 -4 -17 24 -19 -1 27 -15 -29 -30
right_child=1 2 20 9 10 6 7 8 -10 14 19 12 13 26 -16 17 -18 18 -20 -21 -22 -23 -24 -25 -26 -27 -28 28 29 -31
leaf_value=0.052920319214294034 -0.029556234053599875 -0.051835216586592694 -0.045308135309668318 -0.0021984015548123718 0.020960738907806212 -0.051326929015943379 -0.060181260434031908 -0.037327822289769094 0.12135986832675912 -0.0087006482798757702 0.011512452322932916 0.0058560145155262359 -0.036573651541512181 -0.010646528065875288 0.12197046891702845 0.12258435884556269 0.047125197948169495 0.22894605521870193 -0.0031105184292995361 -0.0076840193855038721 -0.05637435520321972 0.043065558848763834 -0.044828092391340967 0.014488627728993229 0.053987849524111356 -0.044174523440553656 -0.018205584475001115 -0.0029830616954781295 0.032660442555986657 -0.0020354812797484549
leaf_count=67 2022 215 1319 73 3575 188 116 115 497 55 5410 4966 2783 6040 4798 24 1373 26 1256 2716 18830 171 334 495 351 309 2821 7300 1275 1211
internal_value=0 -0.137056 -0.475391 1.12812 -0.000287889 0.455103 0.62311 0.831347 1.0089 1.19675 0.129548 -0.0759175 -0.0597021 -0.0887436 1.21015 0.211483 0.282198 0.0659778 0.133167 0.052841 -0.545491 -0.329459 -0.335879 0.368467 0.661464 -0.239915 -0.0507489 -0.0281152 0.019237 0.160342
internal_count=70731 65429 21451 5302 43978 1131 916 728 612 4926 15560 28418 26396 21430 4853 7434 4948 2486 2128 8126 20320 1490 358 872 377 376 18647 15826 9786 2486
shrinkage=0.1


Tree=22
num_leaves=31
num_cat=0
split_feature=11 8 11 5 43 0 43 11 9 41 16 10 12 11 0 11 8 21 13 16 12 1 36 36 1 1 36 36 40 8
split_gain=3387.39 891.405 426.693 264.321 128.064 70.8834 59.4396 53.8027 48.3257 42.8043 39.1523 35.998 34.2854 33.7367 34.5984 30.7359 32.3683 29.6957 27.9804 22.4243 21.2965 20.4093 37.8351 18.3386 80.1423 75.778 107.34 57.5542 23.0049 16.2887
threshold=2.7820675743719723 6.013410013718218 6.3066036818547824 3.8429285495983749 1.0000000180025095e-35 37.500000000000007 0.22237484737484739 18.627855471706326 4.6761362254841794 0.016329744006501425 1.7066634104493956 5.3499485971471774 2.0740056598106515 6.1477312833487963 21.500000000000004 9.1564157820650696 22.842856632713996 21.27393240557134 2.1503719622738973 4.6456592641498213 2.0740056598106515 5.3147893717105337 31.651666666666671 35.016666666666673 2.4116959604057651 2.4116959604057651 24.946666666666669 24.451666666666672 26.576666666666668 0.76026311234993016
decision_type=2 2 2 2 2 2 2 2 2 2 2 2 2 2 2 2 2 2 2 2 2 2 2 2 2 2 2 2 2 2
left_child=3 4 5 -1 9 -3 7 10 -7 -2 -6 -10 -13 29 -15 16 -4 20 -14 -16 -5 23 -23 25 -25 27 -27 -21 -29 -12
right_child=1 2 15 17 6 8 -8 -9 11 -11 13 12 18 14 19 -17 -18 -19 -20 21 -22 22 -24 24 -26 26 -28 28 -30 -31
leaf_value=-0.032321309293564228 -0.0097074538349680994 -0.021246116387802626 -0.042565713159986564 -0.016935244274504151 -0.020540128284197805 -0.045680013381438483 0.022798020777614184 -0.01262674087865976 -0.026577041588526269 -0.039047474224435302 -0.037764901186078795 -0.052378656701547066 -0.020833622272946963 0.0067709019899791431 0.01295264951515649 -0.056026210655050306 0.028483038168904896 -0.050978145948064914 0.11993260194643728 -0.058238302640831498 0.12393907523515296 0.043521103598359243 -0.041736035343692586 0.13211269116537949 -0.063502217512374212 0.15627294311061246 -0.047271354698649522 0.1161990599803867 -0.0094670190509667605 -0.0012524503342318319
leaf_count=401 3543 325 986 33 1762 108 4527 6975 87 3262 446 50 53 12678 2096 19715 257 25 483 273 4567 472 228 262 82 259 109 109 71 6487
internal_value=0 -0.135568 -0.466165 1.14654 0.00268556 0.535228 0.0425453 0.0152598 0.774513 -0.230943 0.0523816 0.905277 1.01857 0.0711026 0.113346 -0.540256 -0.253347 1.22459 1.10843 0.25368 1.23242 0.389923 0.158135 0.529228 0.862099 0.389684 0.966881 -0.0822558 0.669665 -0.0344865
internal_count=70731 65705 22064 5026 43641 1106 36836 32309 781 6805 25334 673 586 23572 16639 20958 1243 4625 536 3961 4600 1865 700 1165 344 821 368 453 180 6933
shrinkage=0.1


Tree=23
num_leaves=31
num_cat=0
split_feature=12 8 12 8 44 12 42 9 11 10 13 17 0 6 11 12 45 12 8 10 6 35 27 12 18 9 42 44 41 34
split_gain=3431.48 877.87 427.414 247.37 81.4388 73.2991 60.0048 59.4794 51.898 56.9576 53.9215 31.1775 37.5989 70.6063 25.3029 24.0523 20.1881 19.5012 41.2194 18.8079 17.7757 16.8997 16.7708 15.8286 15.6106 27.4517 17.4596 16.3102 15.3976 17.2265
threshold=2.7720930705636007 6.4674680942591953 6.3065838613110188 1.4128694207179961 0.0023204913095852698 18.693917457915727 1.0000000180025095e-35 3.578596090435116 4.2823182972716962 3.3068111389298545 3.4590967025280626 1.5697929792547012 22.500000000000004 5.3622849574805658 2.0841425067267045 14.742760935104657 0.027149343501847636 10.01441960231262 25.635650956962319 1.406804673226101 6.0454155836031225 21.33666666666667 7.3967256269174415 18.55466383322285 4.3862113490355457 21.875317140555229 0.008873456790123458 0.17958733974358979 0.013949816244947431 8.5666666666666682
decision_type=2 2 2 2 2 2 2 2 2 2 2 2 2 2 2 2 2 2 2 2 2 2 2 2 2 2 2 2 2 2
left_child=3 4 7 -1 6 11 23 -3 -9 -10 -11 22 16 -14 -5 -15 21 18 -4 -16 -21 -13 -6 28 26 -26 27 -18 29 -2
right_child=1 2 17 14 5 -7 -8 8 9 10 -12 12 13 15 19 -17 24 -19 -20 20 -22 -23 -24 -25 25 -27 -28 -29 -30 -31
leaf_value=-0.041200059379308263 0.075789654870530243 -0.050335681394668222 -0.047648070751090718 0.0025266268823097653 -0.060659916176726142 -0.012058601507779456 -0.036317037998077784 -0.038703784404723433 -0.05170723436672664 -0.036994525230625554 0.11426185758303485 0.0012968612881103603 -0.051709228643841101 0.036524672663473472 -0.044921341909158911 0.01017404356869079 0.0092007929164871338 -0.056044165167231069 0.033221273133490575 0.059545163900522224 0.12506912226635408 0.021173787175168463 -0.0091025388919693667 -0.027686278168486442 0.005769298178630743 0.12354898395321012 -0.0080847865508044802 0.082757103836340093 -0.039791948595570642 0.0044564135388276728
leaf_count=332 110 179 1510 50 253 8195 3475 143 107 95 519 2047 433 3064 24 1568 466 19051 229 121 4496 3708 1490 674 10072 63 5482 118 235 2422
internal_value=0 -0.136879 -0.468177 1.15468 -0.000467424 0.0318389 -0.183675 0.560141 0.708381 0.851461 0.993569 0.0729513 0.0873766 0.221438 1.22331 0.278154 0.0550601 -0.541541 -0.346433 1.23289 1.238 0.143228 -0.161664 -0.0215991 0.0223162 0.0650342 -0.0493493 0.241722 0.0356103 0.075722
internal_count=70731 65708 21833 5023 43875 36959 6916 1043 864 721 614 28764 27021 5065 4691 4632 21956 20790 1739 4641 4617 5755 1743 3441 16201 10135 6066 584 2767 2532
shrinkage=0.1


Tree=24
num_leaves=31
num_cat=1
split_feature=13 8 7 13 45 9 11 12 10 13 18 45 41 18 8 6 48 43 45 37 33 13 8 38 1 1 0 18 14 6
split_gain=2892.05 891.441 874.839 368.13 139.432 61.7091 56.3831 69.2647 65.2565 49.8169 47.7925 43.8106 37.1124 28.2926 24.9487 19.7664 18.9586 29.9166 19.3696 18.1354 17.3813 15.5555 38.4062 15.0311 18.8637 62.4609 22.7217 15.7516 14.3831 15.1097
threshold=2.8244898144879014 6.4674680942591953 4.0576779072581681 6.6625858213252034 1.0000000180025095e-35 7.5568743525192792 3.1174668966695558 3.9832457896789721 2.2608405239622029 17.2219714317363 1.44020831659134 0.10354486622235103 0.0038508865563660088 3.4184645674841008 1.0016985574512918 20.078179678686887 0 0.1233070492461578 0.013502228228273827 11.656666666666668 91.405000000000015 9.4298223734530762 26.057366516379897 19.151666666666671 4.0233329916973295 5.5369697854894104 18.500000000000004 7.9571540125294105 3.1774754047732823 7.1240437954858198
decision_type=2 2 2 2 2 2 2 2 2 2 2 2 2 2 2 2 1 2 2 2 2 2 2 2 2 2 2 2 2 2
left_child=2 4 13 5 12 -3 -7 -8 -9 10 -6 16 -2 -1 -15 -13 17 -12 -18 -19 -21 22 -5 24 26 27 -20 -26 29 -11
right_child=1 3 -4 21 9 6 7 8 -10 28 11 15 -14 14 -16 -17 18 19 23 20 -22 -23 -24 -25 25 -27 -28 -29 -30 -31
leaf_value=-0.059165072973566296 -0.0073258571972798408 -0.039748923947734126 0.12467750290193946 -0.045955595588439979 -0.028716872751282586 -0.056019634344098235 -0.050687939114413216 -0.051483166387928769 0.11297095219867759 0.021418932871715785 -0.0074658202035565576 0.0172886678023421 -0.031932888908263783 -0.04920771162973487 0.06269252109363839 0.041168494953528249 0.021725219798888983 0.2022823554089771 0.0066752867944554501 0.080189702077099911 -0.062209608806437125 -0.055989525207153959 0.062590475371295001 -0.002165953389644963 0.07995286304284277 0.008986101452810976 -0.055870877925285715 0.18503195064761951 -0.012363021923946291 -0.0038209050980360947
leaf_count=1067 3633 266 4570 1044 1070 139 145 105 510 950 224 7889 4874 144 111 1192 1678 33 1314 223 31 19169 128 9630 225 1310 205 52 5162 3638
internal_value=0 -0.1341 1.00677 -0.473407 0.00472659 0.449113 0.630886 0.774283 0.957772 0.0532153 0.0943518 0.110047 -0.20939 -0.441115 0.083914 0.205101 0.0499242 0.366676 0.0368151 0.791087 0.629526 -0.54603 -0.325774 0.0132782 0.120649 0.255311 -0.0217504 1.00199 -0.0573787 0.0157493
internal_count=70731 64839 5892 21506 43333 1165 899 760 615 34826 25076 24006 8507 1322 255 9081 14925 511 14414 287 254 20341 1172 12736 3106 1587 1519 277 9750 4588
cat_boundaries=0 1
cat_threshold=4325376
shrinkage=0.1


Tree=25
num_leaves=31
num_cat=1
split_feature=9 8 9 8 41 8 9 3 14 42 41 11 10 12 13 12 9 12 10 9 41 0 6 28 35 48 36 31 42 38
split_gain=3019.51 922.152 281.008 227.379 81.8318 81.0178 40.8273 35.921 24.2766 20.6427 22.0482 20.5301 22.1608 22.9601 20.2317 19.7059 17.6712 17.6105 17.4902 16.8917 16.8266 17.0506 16.7571 16.5472 16.3902 17.367 17.8547 17.7692 16.7619 16.0186
threshold=3.2583277858748665 6.4674680942591953 7.3760219626424011 3.0710340278045991 0.16503658711559618 20.224428297107412 5.4223611093323552 20.451946116404333 1.1289375536317356 0.17260544505572015 1.0000000180025095e-35 4.3842331141066646 3.3068111389298545 5.7894472965841413 4.2013688239550335 0.92417530804496095 17.81407589262243 14.261805636031889 0.66644579568995976 4.9774742588944259 0.0038508865563660088 18.500000000000004 2.4601016225738954 24.470574152071048 44.671666666666674 0 45.296666666666674 43.735000000000007 0.068444688550012941 29.58666666666667
decision_type=2 2 2 2 2 2 2 2 2 2 2 2 2 2 2 2 2 2 2 2 2 2 2 2 2 1 2 2 2 2
left_child=3 4 5 -1 6 19 20 8 -8 17 -11 -7 -13 -14 -15 -5 23 -10 -17 -3 -2 -22 -12 24 25 28 -27 -28 -6 -26
right_child=1 2 -4 15 16 11 7 -9 9 10 22 12 13 14 -16 18 -18 -19 -20 -21 21 -23 -24 -25 29 26 27 -29 -30 -31
leaf_value=-0.03880670987455305 -0.037853686055704168 0.017118051615232107 -0.055015530842255606 -0.059424296128382625 0.059149459589263653 -0.045859022891289555 -0.025742921821536487 -0.017095349172693498 0.0012055917495158927 -0.036948358349605359 0.039940787083012699 -0.053100879171059559 -0.034319991688395321 -0.011667464901855279 0.10870764707669239 -0.020032726014761928 0.00030943767643435262 0.014357348944732862 0.10740744315546835 -0.033431624028047773 -0.010280288142668102 -0.050255980851404917 -0.0057598280411413089 0.044081761259828073 0.022345264195586991 0.0071075738686748463 0.10787912006592724 0.016188180258902559 0.016872864622117151 0.10428397072234351
leaf_count=364 1294 343 19851 27 402 51 1016 4332 9588 756 258 40 46 47 329 30 3761 4389 5162 534 3549 376 4193 502 189 8186 98 149 764 105
internal_value=0 -0.132333 -0.480424 1.00238 -0.000419461 0.249744 -0.053316 -0.0241636 0.00610041 0.0198422 -0.0756224 0.71189 0.794585 0.878971 0.979836 1.06396 0.105805 0.05378 1.06864 -0.114625 -0.197365 -0.140608 -0.0307221 0.141342 0.125981 0.113744 0.0843553 0.528249 0.302326 0.517464
internal_count=70731 65148 21241 5583 43907 1390 29751 24532 20200 19184 5207 513 462 422 376 5219 14156 13977 5192 877 5219 3925 4451 10395 9893 9599 8433 247 1166 294
cat_boundaries=0 1
cat_threshold=66
shrinkage=0.1


Tree=26
num_leaves=31
num_cat=3
split_feature=10 8 10 4 42 9 11 12 13 11 15 10 43 42 9 10 8 12 48 45 22 48 45 10 48 35 15 0 4 10
split_gain=2954.48 860.482 346.915 190.655 125.432 57.1149 69.2693 61.8918 59.314 32.3236 30.4014 29.8084 25.319 66.2526 22.853 21.4262 35.7784 16.7541 16.5399 16.4816 16.4846 16.4624 16.1544 16.0833 20.3425 18.7197 16.4717 22.6722 31.3376 18.0065
threshold=2.9812245462127405 6.4674680942591953 6.2849741447360019 4.8665131252121787 0.14776300743281875 5.3038665133196004 4.1426379729607481 3.46217417112255 2.4758735579792668 1.5356757456441337 1.1352973178863761 15.982005495826551 1.0000000180025095e-35 1.0000000180025095e-35 2.1673370595305594 9.585045642486195 26.573507483948937 0.68447059834590729 0 0.036341624477217706 21.590223480986431 1 0.070407954976234241 19.537841487421471 2 15.571666666666671 2.7984817284302688 28.500000000000004 6.1777827737789579 13.820403394938181
decision_type=2 2 2 2 2 2 2 2 2 2 2 2 2 2 2 2 2 2 1 2 2 1 2 2 1 2 2 2 2 2
left_child=3 4 5 -1 10 -3 -7 -8 -9 -5 -2 19 18 -14 -11 16 -4 -16 -12 -6 21 -21 -13 24 25 -15 -26 -28 -29 -30
right_child=1 2 15 9 11 6 7 8 -10 14 12 22 13 23 17 -17 -18 -19 -20 20 -22 -23 -24 -25 26 -27 27 28 29 -31
leaf_value=-0.026582171083466902 -0.031399734983769571 -0.050597672865582914 -0.043924774117494132 -0.046323076881089276 0.026959643031233861 -0.050069901697722553 -0.059280777332260538 -0.040579297399939651 0.10802728608391284 -0.0077903996661347332 0.041088044907230808 0.010077618636833353 -0.035418142516935959 0.062125572903473571 -0.047178791707099224 -0.055463606818043493 0.039546734473073206 0.11007202166064776 0.0023325066856927481 0.038361373771287482 0.040728270007238762 0.0074272599806961288 -0.0094756481817893992 -0.017235511425446423 -0.015852493628350488 0.0077701500676980173 -0.0049297608901286531 -0.04514140944094857 0.038923251973482065 0.0028090406152995002
leaf_count=361 1617 215 1319 46 3301 188 116 108 504 55 280 2764 2814 255 22 18830 171 4818 4771 496 539 6075 2385 2939 3161 758 9902 234 959 728
internal_value=0 -0.129043 -0.464866 1.0205 -0.000259632 0.424181 0.575216 0.75929 0.912555 1.07934 -0.0720162 0.121288 -0.0581228 -0.0852831 1.08804 -0.535621 -0.315046 1.09623 0.0508843 0.172481 0.12577 0.101901 0.0122152 -0.0492936 -0.0276481 0.204634 -0.0443992 -0.0144807 0.156945 0.237273
internal_count=70731 65429 21451 5302 43978 1131 916 728 612 4941 28418 15560 26801 21750 4895 20320 1490 4840 5051 10411 7110 6571 5149 18936 15997 1013 14984 11823 1921 1687
cat_boundaries=0 1 2 3
cat_threshold=129 2080 8448
shrinkage=0.1


Tree=27
num_leaves=31
num_cat=1
split_feature=11 8 11 5 43 0 43 41 9 11 11 10 8 48 12 21 26 36 16 13 40 17 12 47 0 5 11 47 42 39
split_gain=2843.49 820.154 389.095 216.973 116.251 59.271 53.1645 40.1391 39.9572 33.6429 30.6473 30.3419 29.4264 27.4562 26.3694 25.4114 24.9994 24.9848 23.2717 21.9852 21.3889 21 17.6428 17.58 17.513 28.6243 18.9299 17.1091 27.9186 16.5657
threshold=2.7820675743719723 6.013410013718218 6.3066036818547824 3.8429285495983749 1.0000000180025095e-35 37.500000000000007 0.16800789392929327 0.0038508865563660088 4.6761362254841794 18.627855471706326 9.1564157820650696 2.2608405239622029 22.842856632713996 0 1.8014853244744866 21.27393240557134 20.915329306461185 15.881666666666669 1.1462983904725677 2.1503719622738973 23.606666666666669 5.4960986162236161 2.0740056598106515 9.5000000000000018 34.500000000000007 5.9257995238986085 5.5519816280290764 9.5000000000000018 0.091097698981516428 51.065000000000005
decision_type=2 2 2 2 2 2 2 2 2 2 2 2 2 1 2 2 2 2 2 2 2 2 2 2 2 2 2 2 2 2
left_child=3 4 5 -1 7 -3 9 -2 -7 13 12 -10 -4 21 -13 22 23 20 -19 -16 -15 27 -5 -8 29 -26 -27 -6 -29 -20
right_child=1 2 10 15 6 8 16 -9 11 -11 -12 14 -14 17 19 -17 -18 18 24 -21 -22 -23 -24 -25 25 26 -28 28 -30 -31
leaf_value=-0.031394020585977428 -0.0087646349283992779 -0.020072033102809417 -0.041193646936053284 -0.016901038630948214 0.019710790045898669 -0.044337100882464106 0.029621011573585345 -0.037349973005101268 -0.052647322394996782 -0.012478611292934837 -0.055174112574374268 -0.050963173866033031 0.026626835485875983 0.043902598246471088 -0.020118648871515144 -0.050773274064821343 -0.002735010713324622 -0.034411904136573551 -0.0072594819328868068 0.10494620961970647 0.0076310258482282086 0.0010002294218738746 0.11145109635351697 0.012558503397997632 -0.04704907899888304 0.13541804877993532 0.019743877189303087 0.11639150420903484 0.022778435872101752 0.004374899060198968
leaf_count=401 3402 325 986 33 356 108 3090 3403 61 5753 19715 49 257 699 54 25 1935 653 8013 509 1724 490 4567 4300 226 42 1725 208 184 7438
internal_value=0 -0.127683 -0.455846 1.0334 0.00248945 0.49504 0.0401194 -0.222247 0.708625 1.36654e-05 -0.530888 0.822284 -0.240096 0.0310636 0.903274 1.10136 0.152699 0.0149795 -0.00778916 0.974499 0.182233 0.27809 1.10836 0.197591 0.00421685 0.156699 0.225492 0.47688 0.728376 -0.0164232
internal_count=70731 65705 22064 5026 43641 1106 36836 6805 781 27511 20958 673 1243 21758 612 4625 9325 20520 18097 563 2423 1238 4600 7390 17444 1993 1767 748 392 15451
cat_boundaries=0 1
cat_threshold=2147483656
shrinkage=0.1


Tree=28
num_leaves=31
num_cat=1
split_feature=12 8 12 8 44 12 42 9 11 10 13 17 0 6 17 11 12 8 48 1 37 1 37 37 1 1 37 35 45 6
split_gain=2883.77 809.06 388.517 203.244 74.9162 65.8371 55.6308 50.1696 40.3076 45.4751 43.774 28.829 27.9389 65.4064 24.524 21.6093 19.6725 38.059 19.0617 18.8647 19.647 19.317 90.8289 50.266 62.2259 41.4279 19.0996 18.0293 15.8819 15.3355
threshold=2.7720930705636007 6.4674680942591953 6.3065838613110188 1.4128694207179961 0.0023204913095852698 18.693917457915727 1.0000000180025095e-35 5.9740898885152243 4.2823182972716962 3.3068111389298545 2.8244898144879014 1.2222519951937099 22.500000000000004 5.4528983114137572 5.6741166713418911 1.5356757456441337 10.01441960231262 25.635650956962319 0 5.3542338128056057 34.51166666666667 1.0254682020092685 27.456666666666674 22.036666666666669 3.1471777071961751 3.1471777071961751 32.956666666666671 43.251666666666672 1.0000000180025095e-35 6.0454155836031225
decision_type=2 2 2 2 2 2 2 2 2 2 2 2 2 2 2 2 2 2 1 2 2 2 2 2 2 2 2 2 2 2
left_child=3 4 7 -1 6 11 -2 -3 -9 -10 -11 -6 18 -14 -15 -5 17 -4 27 21 -21 22 -16 25 26 -23 -25 -13 -20 -17
right_child=1 2 16 15 5 -7 -8 8 9 10 -12 12 13 14 19 29 -18 -19 28 20 -22 23 -24 24 -26 -27 -28 -29 -30 -31
leaf_value=-0.040150575741838855 -0.0022367056555211307 -0.033381409588306994 -0.046429200638273806 -0.022437317809801561 -0.02108488065715991 -0.011489198100803094 -0.035339045643189612 -0.035557963310686003 -0.050130768747490784 -0.038110000845038489 0.10464031087173201 0.02369681354103019 -0.04959387560844597 0.01588349268606442 -0.053041679641665868 0.052598645154716406 -0.055201251264248276 0.0311394965184431 0.015631122348505184 0.033865039603510443 -0.041437668614223433 -0.065155395354880796 0.093130698624032074 0.00067378731248765665 -0.029032428264441863 0.15543622461076007 0.18067643616521084 0.16084325325874727 0.0018173396981602348 0.11196940919638275
leaf_count=332 3441 222 1510 37 1187 8195 3475 133 102 90 496 1215 478 3409 219 124 19051 229 2902 423 135 27 275 22 187 215 71 30 17969 4530
internal_value=0 -0.128973 -0.458146 1.04133 -0.000422152 0.0303781 -0.177318 0.517742 0.67313 0.795332 0.917705 0.0690773 0.0802141 0.190268 0.242306 1.10086 -0.532287 -0.332449 0.0516696 0.414872 0.163416 0.550034 0.310174 0.773119 0.279686 1.31775 1.3921 0.257571 0.0382892 1.10804
internal_count=70731 65708 21833 5023 43875 36959 6916 1043 821 688 586 28764 27577 5461 4983 4691 20790 1739 22116 1574 558 1016 494 522 280 242 93 1245 20871 4654
cat_boundaries=0 1
cat_threshold=1074790400
shrinkage=0.1


Tree=29
num_leaves=31
num_cat=0
split_feature=13 8 7 13 45 9 11 12 10 13 18 45 41 28 11 0 7 18 13 8 7 1 1 38 38 1 1 38 0 16
split_gain=2442.35 822.103 722.448 337.315 127.045 52.3341 47.4785 56.8277 52.4458 44.6007 41.9879 38.02 34.6091 23.9448 21.6169 20.9863 58.5966 25.9518 15.6867 34.4505 14.3907 14.0732 18.3264 47.7892 20.4064 73.4688 63.6553 31.1411 13.8409 13.7741
threshold=2.8244898144879014 6.4674680942591953 3.3975358293129987 6.6625858213252034 1.0000000180025095e-35 7.5568743525192792 3.1174668966695558 3.9832457896789721 2.2608405239622029 17.370368447384156 1.44020831659134 0.13714803312629403 0.0038508865563660088 5.2706546070712017 8.7500685711430943 22.500000000000004 5.754459140107623 4.3862113490355457 9.4298223734530762 30.880921292692801 17.659256778775767 5.5542485450841541 0.81288709911635915 26.751666666666669 23.841666666666672 3.1471777071961751 3.1471777071961751 30.136666666666674 22.500000000000004 6.4441562674739474
decision_type=2 2 2 2 2 2 2 2 2 2 2 2 2 2 2 2 2 2 2 2 2 2 2 2 2 2 2 2 2 2
left_child=2 4 13 5 12 -3 -7 -8 -9 10 -6 15 20 -1 -15 -12 -17 -18 19 -5 -2 22 23 -19 26 27 -24 -26 -20 -11
right_child=1 3 -4 18 9 6 7 8 -10 29 11 -13 -14 14 -16 16 17 21 28 -21 -22 -23 24 -25 25 -27 -28 -29 -30 -31
leaf_value=-0.057992016762601295 2.4980989876219433e-05 -0.038330616149608476 0.11189655887229771 -0.041751005682724635 -0.026879509063992071 -0.055120086777686608 -0.049507409529473412 -0.050308149092037291 0.10084263244049343 -0.0015419723278085242 0.0035497912576775573 0.022768442046259843 -0.030955933159532406 0.09382266973732438 -0.028671554529346922 -0.048156373650047414 0.0090366106428944933 -0.040420011311301032 0.030897734700540903 0.081139864341007201 -0.025485420801893362 0.015113757525541725 -0.058912364517760787 0.077828148405890807 -0.032181321305340592 -0.028937214870919964 0.12666869685891627 0.17119648180005076 -0.055523444538705696 -0.017323978752782909
leaf_count=1083 2603 266 4588 1094 1089 139 145 105 510 7152 15256 5575 4874 58 163 414 1333 190 51 78 1030 415 67 212 27 201 307 114 19118 2474
internal_value=0 -0.126283 0.912592 -0.463625 0.00451707 0.417216 0.580148 0.706026 0.863733 0.0504181 0.0887652 0.103331 -0.201639 -0.446452 0.0818597 0.0638625 0.189688 0.270388 -0.537187 -0.311773 -0.070472 0.41968 0.518959 0.225832 0.681186 0.377305 0.951867 1.3202 -0.551672 -0.0555002
internal_count=70731 64839 5892 21506 43333 1165 899 760 615 34826 25200 24111 8507 1304 221 18536 3280 2866 20341 1172 3633 1533 1118 402 716 342 374 141 19169 9626
shrinkage=0.1


Tree=30
num_leaves=31
num_cat=1
split_feature=9 8 9 3 41 8 42 9 9 41 15 14 45 8 43 8 45 45 41 11 10 12 13 12 4 20 25 48 8 10
split_gain=2567.75 847.744 260.725 195.118 73.777 68.6313 33.7547 26.2782 30.9561 25.4959 23.0947 26.583 22.0648 21.1431 20.5233 18.3739 17.8539 17.3623 36.7171 17.1526 18.4787 18.8878 16.5703 15.5138 15.3186 17.2021 19.1504 17.0262 15.2207 15.2072
threshold=3.2583277858748665 6.4674680942591953 7.3760219626424011 5.5109799490365541 0.071167145441004373 20.224428297107412 0.14157288317256164 17.81407589262243 7.132208632092282 1.0000000180025095e-35 7.2528477077277884 1.7044940598312439 1.0000000180025095e-35 3.3201731881770447 0.058264786525656094 0.9449338601193199 0.19982014388489211 1.0000000180025095e-35 1.0000000180025095e-35 4.3842331141066646 3.3068111389298545 5.7894472965841413 4.2013688239550335 1.8014853244744866 14.594627436011619 17.795833780378718 18.514047369437254 0 1.4627713423498607 4.3142496341398937
decision_type=2 2 2 2 2 2 2 2 2 2 2 2 2 2 2 2 2 2 2 2 2 2 2 2 2 2 2 1 2 2
left_child=3 4 5 28 6 29 17 8 24 16 11 -10 14 -13 -9 -14 -8 -2 -19 -7 -21 -22 -23 -5 27 26 -26 -6 -1 -3
right_child=1 2 -4 23 7 19 9 12 10 -11 -12 13 15 -15 -16 -17 -18 18 -20 20 21 22 -24 -25 25 -27 -28 -29 -30 -31
leaf_value=-0.050790877544144131 0.0052413702301113904 -0.05459128984812494 -0.054097806372037149 -0.016156132774507708 0.040978472639903479 -0.04441051163702385 -0.043000671915610328 0.048263023906776469 -0.0075141906311567896 -0.012770239543069689 -0.0015842175413464266 0.027264862071352359 0.00017894249138488067 0.012106921065438984 -0.00050103506162443455 -0.019459838557465088 0.022335047246155908 -0.039245653734948198 -0.0025063964055185984 -0.051723671277115135 -0.032710325791784754 -0.010869704576968812 0.09867274661188434 0.098621195627829089 0.026966869852376868 -0.0024035938727644994 0.13210082894891631 -0.011388640301570465 0.017953093230044327 0.0024689700761750134
leaf_count=280 4087 229 19851 38 138 51 1831 403 1423 4638 3123 3993 3315 7521 645 2668 152 1090 4117 40 46 47 329 5101 304 621 63 3775 164 648
internal_value=0 -0.124356 -0.470087 0.918394 -0.000358377 0.234461 -0.0975776 0.0517808 0.0816159 -0.197839 0.116856 0.148104 -0.0411886 0.174517 0.185157 -0.0835418 -0.377643 -0.0313163 -0.0991 0.656414 0.729507 0.803631 0.892137 0.980877 -0.0408618 0.153058 0.452124 -0.0901551 -0.246032 -0.106366
internal_count=70731 65148 21241 5583 43907 1390 15915 27992 20961 6621 16060 12937 7031 11514 1048 5983 1983 9294 5207 513 462 422 376 5139 4901 988 367 3913 444 877
cat_boundaries=0 1
cat_threshold=640
shrinkage=0.1


Tree=31
num_leaves=31
num_cat=2
split_feature=10 8 10 4 42 9 11 12 13 15 10 4 0 15 11 15 0 48 42 10 8 45 9 10 8 25 8 34 35 48
split_gain=2514.96 791.55 317.608 161.033 113.078 50.218 60.3444 53.1334 51.9698 32.2086 30.9083 53.737 32.9279 30.0101 26.9903 24.5926 22.4554 20.6251 20.2649 20.1485 31.3371 19.0282 18.7693 18.2938 18.148 17.5774 18.4802 15.1843 14.7988 13.8723
threshold=2.9812245462127405 6.4674680942591953 6.3665296636633437 5.4208071351419154 0.1910829607550919 5.3038665133196004 4.1426379729607481 3.46217417112255 5.6198620952742759 1.1352973178863761 18.357392243233829 6.7219119303959962 29.500000000000004 9.8206338888559106 1.5356757456441337 2.8469281690973487 13.500000000000002 0 1.0000000180025095e-35 9.585045642486195 26.573507483948937 0.088277191218367704 2.1673370595305594 5.6189189351248956 1.961045628840667 6.6175486397640677 1.1072939399748063 44.141666666666673 9.8466666666666693 1
decision_type=2 2 2 2 2 2 2 2 2 2 2 2 2 2 2 2 2 1 2 2 2 2 2 2 2 2 2 2 2 1
left_child=3 4 5 25 9 -3 -7 -8 -9 -2 11 13 17 16 -5 -14 18 28 -11 20 -4 -19 -16 -17 -12 -1 -27 -15 -13 -6
right_child=1 2 19 14 29 6 7 8 -10 10 24 12 15 27 22 23 -18 21 -20 -21 -22 -23 -24 -25 -26 26 -28 -29 -30 -31
leaf_value=-0.055543446448789328 -0.027027416601502926 -0.049661344832984379 -0.042868790753138132 -0.04502993827598481 0.037264501545266795 -0.049163529488860408 -0.058567612932416885 -0.031422636528545107 0.099411602559196538 -0.030290032820068064 -0.0062780077285000228 0.081621997949670899 -0.00056826034237103453 0.012166280089653751 -0.0067304238773267123 0.15134341857846967 -0.047053360338566733 0.0034930178351931188 -0.0078357589867972168 -0.054602552056684808 0.036598141656209546 -0.01143701444527493 0.10052107038625163 0.02739791589694553 -0.025235176097390684 -0.046576172750237482 0.079514796700577442 0.10992418531699451 0.01608298609743912 0.0142468855476399
leaf_count=224 1999 222 1297 46 847 194 119 127 498 1671 3710 107 1274 969 55 36 640 7691 6222 18830 164 4015 4825 2451 2853 71 81 51 1226 8216
internal_value=0 -0.121319 -0.454902 0.935683 -0.000175186 0.388975 0.526986 0.693636 0.829586 -0.0472026 -0.0343302 -0.00781856 0.0508156 -0.115081 0.990206 0.193276 -0.149686 0.00897635 -0.123717 -0.527028 -0.306413 -0.0153615 0.997919 0.291835 -0.144265 -0.225595 0.241641 0.172091 0.206211 0.167164
internal_count=70731 65429 21451 5302 43978 1160 938 744 625 34915 32916 26353 16800 9553 4926 3761 8533 13039 7893 20291 1461 11706 4880 2487 6563 376 152 1020 1333 9063
cat_boundaries=0 1 2
cat_threshold=8448 2147485696
shrinkage=0.1


Tree=32
num_leaves=31
num_cat=2
split_feature=11 8 11 5 43 9 10 43 13 12 41 11 5 11 8 21 11 26 48 17 11 48 12 36 40 44 16 0 29 38
split_gain=2412.98 754.158 356.237 183.004 106.426 55.9661 56.792 47.9276 42.1454 47.8273 37.6302 33.4579 24.2113 23.6033 26.3859 22.2406 21.3672 20.8897 17.1889 16.2676 15.5961 15.0908 14.8186 14.6976 14.9534 23.5343 14.6459 14.5358 14.5331 15.3058
threshold=2.7820675743719723 6.013410013718218 6.6386218443161438 3.6105470340222023 1.0000000180025095e-35 4.5432091940860158 5.3499485971471774 0.14924182396422411 5.8413782617127188 2.7720930705636007 0.016329744006501425 18.627855471706326 8.8967634564486442 9.7509768676270152 28.125930142577879 21.27393240557134 4.9130794698158766 20.915329306461185 0 5.2405867959023649 5.4009536194295036 1 2.0740056598106515 15.881666666666669 24.03166666666667 0.0023204913095852698 2.7081543530604 18.500000000000004 71.315000000000012 24.661666666666669
decision_type=2 2 2 2 2 2 2 2 2 2 2 2 2 2 2 2 2 2 1 2 2 1 2 2 2 2 2 2 2 2
left_child=3 4 5 -1 10 -3 -7 11 -8 -10 21 16 -11 14 -4 22 -6 20 19 -18 -9 -2 -5 24 25 -20 -22 -28 -23 -30
right_child=1 2 13 15 7 6 8 17 9 12 -12 -13 -14 -15 -16 -17 18 -19 23 -21 26 28 -24 -25 -26 -27 27 -29 29 -31
leaf_value=-0.033096382254878869 0.033716147158095448 -0.048406774957513977 -0.038933200071423819 -0.016512477430365945 -0.014436528753015924 -0.043075471190531539 -0.017021677793644101 -0.0079048499082019809 -0.043380788769551051 -0.02685755849221387 -0.037003770322856497 -0.014531806364316065 0.10699817910398762 -0.054627700882376333 0.038852667196343192 -0.050576873405813787 0.048081933209951695 -0.0019571052900639193 0.10527699349631614 0.0011156375397263346 0.0063952240421915156 -0.020229995886322211 0.10160872132584563 0.0008394529431825636 -0.0012316386283146696 0.021222683335488522 0.018080014710655266 0.038684189250453443 0.027087995772729197 -0.016678461542812547
leaf_count=387 188 241 1329 33 2229 195 156 788 102 43 3262 4938 498 19359 141 25 529 2616 107 387 2524 2316 4581 13837 866 1132 5665 1218 526 513
internal_value=0 -0.120066 -0.445992 0.944356 0.00235672 0.421013 0.563474 0.0380717 0.715788 0.86206 -0.21452 -0.00970491 0.994287 -0.525607 -0.28403 1.00414 0.0229584 0.123106 0.043937 0.267672 0.157606 -0.0899702 1.01057 0.0294727 0.165421 0.287514 0.17689 0.217928 -0.119231 0.0550683
internal_count=70731 65705 22064 5026 43641 1235 994 36836 799 643 6805 24025 541 20829 1470 4639 19087 12811 16858 916 10195 3543 4614 15942 2105 1239 9407 6883 3355 1039
cat_boundaries=0 1 2
cat_threshold=2147483656 12
shrinkage=0.1


Tree=33
num_leaves=31
num_cat=1
split_feature=12 8 12 8 44 12 41 9 11 10 13 17 0 6 12 11 12 8 48 12 27 10 45 16 18 9 8 35 43 12
split_gain=2448.39 745.039 353.592 172.112 68.9499 59.2823 52.3657 42.6367 39.9352 41.0065 39.9583 26.5114 28.4882 58.2831 23.4937 18.7664 17.4019 30.9003 17.0055 16.9431 15.9016 15.2429 14.6235 15.0841 14.7349 21.0443 14.3373 14.2409 14.0898 15.0944
threshold=2.7720930705636007 6.4674680942591953 6.4661619216221853 1.2300406497347989 0.0023204913095852698 18.693917457915727 1.0000000180025095e-35 3.578596090435116 4.2823182972716962 3.3068111389298545 5.93506529028957 1.5697929792547012 22.500000000000004 6.3711772850692823 14.742760935104657 2.0841425067267045 10.01441960231262 25.635650956962319 0 4.8847108408096824 7.3967256269174415 1.406804673226101 0.027149343501847636 1.6794344286098146 4.3862113490355457 21.875317140555229 0.80224684480526365 43.251666666666672 0.045332741500624711 18.55466383322285
decision_type=2 2 2 2 2 2 2 2 2 2 2 2 2 2 2 2 2 2 1 2 2 2 2 2 2 2 2 2 2 2
left_child=3 4 7 -1 6 11 28 -3 -9 -10 -11 20 18 -14 19 -5 17 -4 27 -15 -6 -17 -20 -24 -25 -26 -7 -13 29 -2
right_child=1 2 16 15 5 26 -8 8 9 10 -12 12 13 14 -16 21 -18 -19 22 -21 -22 -23 23 24 25 -27 -28 -29 -30 -31
leaf_value=-0.042758916504902156 0.0068099302345603699 -0.046503742716316028 -0.045634338048162526 -0.0012885100487184055 -0.059870566022245379 -0.002868633464131042 -0.034677440163105498 -0.037821257019530569 -0.050009185493811351 -0.021997173188418456 0.09453893471045581 0.022483346126323397 -0.034814747832125723 0.15381049983459741 0.0084452202728785043 -0.046076849685040715 -0.054401380219718215 0.025774358550597912 0.011454991577960393 0.033066862464427298 -0.0084809034510798156 0.10161169897923486 0.04755877420675729 -0.0069770744433241792 0.003825359392725491 0.10492396867447532 -0.018210623102340631 0.1390811812922538 -0.040098434031041415 -0.025147217688262714
leaf_count=318 2567 189 1461 50 253 3800 3398 159 114 124 515 1210 632 31 1568 25 19051 220 5390 2834 1490 4630 216 5698 9351 61 4395 30 329 622
internal_value=0 -0.121365 -0.448599 0.951567 -0.000378308 0.029005 -0.171177 0.462206 0.579138 0.698593 0.808781 0.0655008 0.0785999 0.193752 0.256101 1.00361 -0.525026 -0.329461 0.0503353 0.344575 -0.152629 1.0116 0.0375452 0.00892516 0.00221674 0.0453082 -0.109566 0.243593 -0.0232992 0.0107786
internal_count=70731 65708 21833 5023 43875 36959 6916 1101 912 753 639 28764 27021 5065 4433 4705 20732 1681 21956 2865 1743 4655 20716 15326 15110 9412 8195 1240 3518 3189
cat_boundaries=0 1
cat_threshold=1074790400
shrinkage=0.1


Tree=34
num_leaves=31
num_cat=1
split_feature=13 8 7 13 45 9 11 12 10 13 18 45 41 18 8 2 3 41 28 44 48 43 45 28 31 13 8 38 39 38
split_gain=2079.92 757.477 609.887 309.229 115.604 45.3692 43.042 53.0574 47.0812 40.0549 39.7505 34.3705 32.0038 29.7708 22.4159 18.2497 17.5211 25.6154 17.3225 17.0176 16.3021 25.154 17.1265 16.9136 17.6081 15.8281 31.6974 15.4096 14.7254 15.6398
threshold=2.8244898144879014 6.4674680942591953 4.679406985018475 6.6625858213252034 1.0000000180025095e-35 3.2583277858748665 6.4658758093306234 3.46217417112255 2.2608405239622029 17.2219714317363 1.44020831659134 0.10354486622235103 0.0038508865563660088 3.4184645674841008 1.0016985574512918 90.545000000000016 12.25042448135355 0.028079417983729354 9.9483666988171304 0.20900227905798938 0 0.1233070492461578 0.013502228228273827 14.222237868654188 91.035000000000011 9.4298223734530762 26.057366516379897 36.106666666666676 97.77500000000002 26.596666666666671
decision_type=2 2 2 2 2 2 2 2 2 2 2 2 2 2 2 2 2 2 2 2 1 2 2 2 2 2 2 2 2 2
left_child=2 4 13 5 12 -3 -7 -8 -9 10 -6 20 -2 -1 -15 16 17 -13 27 28 21 -12 -22 24 -23 26 -5 -18 29 -17
right_child=1 3 -4 25 9 6 7 8 -10 -11 11 15 -14 14 -16 19 18 -19 -20 -21 22 23 -24 -25 -26 -27 -28 -29 -30 -31
leaf_value=-0.058198071123827501 -0.0068281764232307959 -0.055714680664571962 0.10245302422803962 -0.043518964648340958 -0.027019301733185105 -0.034607396973056169 -0.051674753287801502 -0.049642749617672927 0.093690411100112864 -0.0052070787670767367 -0.0076101470393778294 0.03526983348436117 -0.02995976204423802 -0.048081852204951134 0.055922853362539937 0.021723863829195555 0.0033814193565057573 0.0026933029690125463 0.034817118859481362 0.15603581518615056 0.020070235688913616 0.10708487095694966 0.0010234796484538862 -0.021344536093600628 -0.040033380610554468 -0.054392035767682013 0.053056284776706347 0.080623405912776391 -0.010856832119545218 0.069425494334823701
leaf_count=1071 3633 190 4556 1044 1070 200 152 111 512 9750 224 865 4874 144 121 414 1129 3959 2035 33 1678 208 12736 49 30 19169 128 83 168 395
internal_value=0 -0.118787 0.836777 -0.45436 0.00428364 0.390122 0.51031 0.652435 0.802057 0.0477184 0.0841799 0.0980922 -0.194049 -0.412169 0.103632 0.181069 0.153373 0.0869766 0.251341 0.398002 0.0447011 0.334483 0.0324665 0.708919 0.900267 -0.528762 -0.297908 0.0869313 0.355429 0.451094
internal_count=70731 64839 5892 21506 43333 1165 975 775 623 34826 25076 24006 8507 1336 265 9081 8071 4824 3247 1010 14925 511 14414 287 238 20341 1172 1212 977 809
cat_boundaries=0 1
cat_threshold=4325376
shrinkage=0.1


Tree=35
